{"learner":{"attributes":{"niter":"24"},"feature_names":[],"feature_types":[],"gradient_booster":{"model":{"gbtree_model_param":{"num_parallel_tree":"1","num_trees":"75","size_leaf_vector":"0"},"tree_info":[0,1,2,0,1,2,0,1,2,0,1,2,0,1,2,0,1,2,0,1,2,0,1,2,0,1,2,0,1,2,0,1,2,0,1,2,0,1,2,0,1,2,0,1,2,0,1,2,0,1,2,0,1,2,0,1,2,0,1,2,0,1,2,0,1,2,0,1,2,0,1,2,0,1,2],"trees":[{"base_weights":[-6.614644E-3,-3.6968526E-1,9.520493E-1,-5.8902836E-1,-7.079924E-2,-3.4424362E-1,1.2193009E0,1.330243E-1,-6.562127E-1,-5.115949E-1,1.9968088E-1,3.4351823E-1,-6.231114E-1,-4.8084402E-1,1.2579433E0,-5.4685587E-1,8.197572E-1,-6.955145E-1,-1.04236126E-1,-6.265613E-1,5.393938E-1,5.086285E-1,-3.7870395E-1,-4.778122E-1,7.588064E-1,-6.8259305E-1,6.727619E-2,1.2969902E0,-2.5973693E-1,-6.0384154E-1,-7.299599E-2,1.1210893E0,-4.2252094E-1,-7.3431027E-1,-5.141603E-1,-3.6115327E-1,9.2099375E-1,-6.5960723E-1,-2.8351396E-1,-3.6119214E-1,1.0785173E0,6.61923E-1,-5.1882696E-1,2.8178102E-1,-5.9818083E-1,1.0785173E0,-1.6031493E-1,1.3275906E0,-3.1853837E-1,1.1570936E-2,-3.946069E-1,7.8585E-2,-6.579945E-1,1.5188225E-1,-5.6302387E-1,-7.4097164E-2,-6.7707247E-1,5.522681E-1,-5.869864E-1,-2.237161E-1,8.864364E-1,-6.2947875E-1,6.727619E-2,-3.627321E-1,6.728181E-1,-6.641515E-1,9.5486864E-2,1.361036E0,-4.4734105E-2,-4.933542E-1,5.622118E-1,-7.1636933E-1,2.8779888E-1,-4.1152176E-1,6.133054E-1,-1.5130986E-1,-6.0642713E-1,-1.01756826E-1,-6.9173044E-1,4.823556E-1,-4.053468E-1,1.0313923E0,-9.1589876E-2,-4.519863E-1,-7.299599E-2,1.1158434E0,-4.1152176E-1,-7.069221E-1,-2.2409907E-1,1.4031681E0,4.674025E-1,9.63926E-1,-1.9998856E-1,-6.1904177E-2,-5.8435434E-1,1.1334199E0,-1.0086024E-1,7.918461E-1,-5.7250863E-1,-3.9975804E-1,6.727619E-2,1.4230233E0,-7.299599E-2,-2.8533038E-1,8.709156E-1],"categories":[],"categories_nodes":[],"categories_segments":[],"categories_sizes":[],"default_left":[1,1,1,1,1,1,1,1,1,1,1,1,1,0,1,1,1,1,1,1,1,1,1,0,1,0,0,1,1,0,0,0,0,0,1,1,0,1,1,0,0,1,1,1,1,0,0,1,0,0,0,1,1,1,1,0,1,0,0,1,1,0,0,1,1,1,0,1,0,0,1,0,0,0,0,0,0,0,0,0,1,1,1,0,0,0,0,0,1,1,1,0,0,0,0,0,0,0,0,0,0,0,0,0,0],"id":0,"left_children":[1,3,5,7,9,11,13,15,17,19,21,23,25,-1,27,29,31,33,35,37,39,41,43,-1,45,-1,-1,47,49,-1,-1,-1,-1,-1,51,53,-1,55,57,-1,-1,59,61,63,65,-1,-1,67,-1,-1,-1,69,71,73,75,-1,77,-1,-1,79,81,-1,-1,83,85,87,-1,89,-1,-1,91,-1,-1,-1,-1,-1,-1,-1,-1,-1,93,95,97,-1,-1,-1,-1,-1,99,101,103,-1,-1,-1,-1,-1,-1,-1,-1,-1,-1,-1,-1,-1,-1],"loss_changes":[1.415358E2,1.9293167E1,3.911756E1,8.3321495E0,1.5120531E1,4.025544E0,6.7035675E0,7.5915194E0,3.3043518E0,6.159726E0,1.4270411E1,2.5379705E0,6.411638E-1,0E0,5.7321777E0,1.7972207E-1,3.4726934E0,6.436081E-1,3.3677468E0,3.1058884E-1,2.957149E0,8.498862E0,4.2279844E0,0E0,1.5312011E0,0E0,0E0,4.8190613E0,1.18612275E-1,0E0,0E0,0E0,0E0,0E0,2.5166821E0,1.1141671E0,0E0,3.5154343E-1,1.7472357E0,0E0,0E0,9.244732E0,5.146779E-1,2.1756816E0,1.0399375E0,0E0,0E0,4.075424E0,0E0,0E0,0E0,2.0861177E0,1.4966125E0,1.186234E0,3.9407253E-2,0E0,2.5025177E-1,0E0,0E0,1.4779041E0,5.2686615E0,0E0,0E0,5.8651805E-2,2.91901E0,2.1069717E-1,0E0,2.560196E0,0E0,0E0,1.4207282E0,0E0,0E0,0E0,0E0,0E0,0E0,0E0,0E0,0E0,4.862069E-1,3.7956734E0,2.845097E0,0E0,0E0,0E0,0E0,0E0,1.9075243E-1,2.480072E0,1.8720828E0,0E0,0E0,0E0,0E0,0E0,0E0,0E0,0E0,0E0,0E0,0E0,0E0,0E0,0E0],"parents":[2147483647,0,0,1,1,2,2,3,3,4,4,5,5,6,6,7,7,8,8,9,9,10,10,11,11,12,12,14,14,15,15,16,16,17,17,18,18,19,19,20,20,21,21,22,22,24,24,27,27,28,28,34,34,35,35,37,37,38,38,41,41,42,42,43,43,44,44,47,47,51,51,52,52,53,53,54,54,56,56,59,59,60,60,63,63,64,64,65,65,67,67,70,70,80,80,81,81,82,82,88,88,89,89,90,90],"right_children":[2,4,6,8,10,12,14,16,18,20,22,24,26,-1,28,30,32,34,36,38,40,42,44,-1,46,-1,-1,48,50,-1,-1,-1,-1,-1,52,54,-1,56,58,-1,-1,60,62,64,66,-1,-1,68,-1,-1,-1,70,72,74,76,-1,78,-1,-1,80,82,-1,-1,84,86,88,-1,90,-1,-1,92,-1,-1,-1,-1,-1,-1,-1,-1,-1,94,96,98,-1,-1,-1,-1,-1,100,102,104,-1,-1,-1,-1,-1,-1,-1,-1,-1,-1,-1,-1,-1,-1],"split_conditions":[4.599855E-1,6.936487E-3,1.1474001E-1,4.58368E-3,3.7481282E-2,1.7697863E1,3.4078257E-4,2.1543088E3,2.7104649E-3,2.3396162E3,9.975598E-1,2.5156457E-2,1.0816948E1,-1.4425321E-1,1.6992295E-2,3.3213913E-1,2.4869058E3,1.2897487E2,5.1887543E1,1.0163626E1,2.2279033E-3,8.009891E0,9.848126E1,-1.4334367E-1,4.186169E-1,-2.0477793E-1,2.0182857E-2,9.43104E-1,6.325235E-1,-1.8115246E-1,-2.1898799E-2,3.363268E-1,-1.2675628E-1,-2.2029309E-1,-2.2282996E-16,6.667038E-1,2.7629814E-1,2.79039E-4,1.29785E1,-1.08357646E-1,3.235552E-1,6.1005726E0,1.1045021E1,5.992647E0,1.1556852E0,3.235552E-1,-4.809448E-2,1.7213507E0,-9.556151E-2,3.471281E-3,-1.18382074E-1,1.4031397E-2,8.280824E-5,4.1688047E-2,4.3721534E-2,-2.222915E-2,2.4264209E-2,1.6568044E-1,-1.7609593E-1,4.873649E-2,1.3714508E0,-1.8884364E-1,2.0182857E-2,3.4901173E0,6.200768E0,1.7861582E3,2.8646061E-2,7.7202185E2,-1.3420233E-2,-1.4800626E-1,8.7660277E-1,-2.149108E-1,8.633967E-2,-1.2345653E-1,1.8399163E-1,-4.539296E-2,-1.8192814E-1,-3.052705E-2,-2.0751914E-1,1.4470668E-1,4.9190515E2,2.9965362E-2,9.961842E2,-1.355959E-1,-2.1898799E-2,3.3475304E-1,-1.2345653E-1,-2.1207665E-1,1.1419455E1,9.211283E0,1.5112913E-1,2.891778E-1,-5.999657E-2,-1.8571254E-2,-1.753063E-1,3.4002596E-1,-3.0258073E-2,2.3755383E-1,-1.717526E-1,-1.19927414E-1,2.0182857E-2,4.2690703E-1,-2.1898799E-2,-8.559912E-2,2.612747E-1],"split_indices":[7,3,3,25,7,9,25,10,14,10,2,3,13,0,23,7,10,15,15,13,25,18,4,0,8,0,0,3,6,0,0,0,0,0,14,9,0,26,13,0,0,15,11,15,5,0,0,5,0,0,0,8,14,24,8,0,3,0,0,8,5,0,0,16,18,10,0,4,0,0,5,0,0,0,0,0,0,0,0,0,4,14,10,0,0,0,0,0,11,18,21,0,0,0,0,0,0,0,0,0,0,0,0,0,0],"split_type":[0,0,0,0,0,0,0,0,0,0,0,0,0,0,0,0,0,0,0,0,0,0,0,0,0,0,0,0,0,0,0,0,0,0,0,0,0,0,0,0,0,0,0,0,0,0,0,0,0,0,0,0,0,0,0,0,0,0,0,0,0,0,0,0,0,0,0,0,0,0,0,0,0,0,0,0,0,0,0,0,0,0,0,0,0,0,0,0,0,0,0,0,0,0,0,0,0,0,0,0,0,0,0,0,0],"sum_hessian":[4.0462756E2,2.9392502E2,1.1070256E2,1.6895988E2,1.24965126E2,1.8872787E1,9.182977E1,1.4299401E1,1.5466049E2,4.7182076E1,7.778305E1,5.3778224E0,1.3494965E1,1.7864878E0,9.004329E1,7.287905E0,7.011496E0,1.4413757E2,1.0522919E1,4.289381E1,4.288267E0,5.077949E1,2.7003555E1,1.7554499E0,3.6223726E0,1.2434902E1,1.0600622E0,8.792653E1,2.1167614E0,6.2606993E0,1.0272058E0,5.721274E0,1.2902223E0,1.1622532E2,2.7912249E1,8.932273E0,1.5906456E0,3.828318E1,4.610627E0,1.7294023E0,2.5588646E0,4.4496464E1,6.283027E0,6.6643248E0,2.033923E1,2.5588646E0,1.0635079E0,8.646695E1,1.4595771E0,1.0064225E0,1.1103388E0,5.5390983E0,2.237315E1,2.5921607E0,6.340112E0,1.2607288E0,3.7022453E1,1.0097855E0,3.6008415E0,8.99953E0,3.5496933E1,5.222965E0,1.0600622E0,2.5438683E0,4.1204567E0,1.8611729E1,1.7275009E0,8.44178E1,2.0491474E0,2.5286236E0,3.0104747E0,2.1301016E1,1.0721352E0,1.2157995E0,1.3763613E0,1.0324701E0,5.307642E0,1.1171476E0,3.5905304E1,1.5026052E0,7.496925E0,3.0867426E1,4.629509E0,1.5166625E0,1.0272058E0,2.9046571E0,1.2157995E0,1.641029E1,2.2014387E0,8.007245E1,4.345352E0,1.7981211E0,1.2123536E0,3.0297964E0,4.4671288E0,2.831493E1,2.5524957E0,1.4039533E0,3.2255557E0,1.1413766E0,1.0600622E0,7.904524E1,1.0272058E0,1.6186774E0,2.726675E0],"tree_param":{"num_deleted":"0","num_feature":"27","num_nodes":"105","size_leaf_vector":"0"}},{"base_weights":[5.0037713E-3,1.4299232E-1,-4.3959728E-1,-5.368939E-2,7.8722495E-1,5.149672E-1,-5.766105E-1,-1.2664121E-1,6.753017E-1,8.906211E-1,4.3251985E-1,-5.0017513E-2,8.4533423E-1,-6.1829096E-1,7.348392E-1,7.4024516E-1,-1.8005024E-1,8.9518684E-1,3.3667628E-2,1.1365166E-1,9.415746E-1,1.7838693E-1,9.8786384E-1,4.4060647E-1,-5.248641E-1,1.3814464E-1,9.5876235E-1,-1.1815543E-1,-7.0346755E-1,9.843833E-1,1.6121672E-1,2.2564949E-1,-2.4437314E-1,1.0371661E0,4.0558223E-2,4.8414484E-1,-3.987283E-1,4.8762172E-1,-2.7070162E-1,9.830326E-1,-7.0948206E-2,8.0029756E-1,-2.930106E-1,-5.5681348E-2,6.79438E-1,1.1203403E0,1.435972E-1,6.6595453E-1,-5.316711E-1,1.5329489E-1,-7.2992605E-1,1.1106021E0,1.3551204E-1,-4.4250557E-1,5.2430946E-1,4.706464E-1,-1.5709086E-1,3.5652953E-1,-2.799918E-1,1.1040671E0,1.7444968E-1,2.567569E-1,-1.613179E-1,-6.5107144E-2,7.185905E-1,-5.5681348E-2,-4.9644482E-1,2.009649E-2,1.0322955E0,1.051102E0,3.6063354E-2,5.730305E-1,-5.5552137E-1,8.8327044E-1,-7.650642E-2,1.2244612E-1,-6.5607405E-1,-7.650642E-2,-7.390155E-1,7.370569E-1,1.0458338E-1,-2.5256297E-1,6.377295E-1,-4.2393357E-1,3.2326463E-1,-7.94268E-2,9.19846E-1,-3.537995E-1,-8.6589836E-2,1.1699326E0,2.1384935E-1,-4.4250557E-1,5.6443197E-1,-5.5681348E-2,1.0567596E0,-5.5681348E-2,-6.281052E-1,2.1384935E-1,-4.9821395E-1,3.4499925E-1,8.74556E-1,-5.563067E-1,2.567569E-1,-4.307324E-1,7.326356E-1,4.4745025E-1,-3.5054305E-1,1.0346226E0,2.567569E-1,-3.8018408E-1,4.565174E-1,2.2960329E-1,-3.3060962E-1,1.0821706E0,1.1473753E-1],"categories":[],"categories_nodes":[],"categories_segments":[],"categories_sizes":[],"default_left":[1,1,1,1,1,1,1,1,1,1,1,1,1,1,0,1,1,1,1,1,1,1,0,1,0,0,1,1,1,1,1,1,1,1,1,1,1,0,0,1,0,1,1,0,0,0,0,1,1,0,1,0,0,0,1,1,1,1,1,1,0,0,0,0,0,0,0,1,1,0,0,0,1,0,0,0,0,0,0,0,0,1,1,1,1,1,1,1,1,0,0,0,0,0,1,0,0,0,0,0,0,0,0,0,0,0,0,0,0,0,0,0,0,0,0],"id":1,"left_children":[1,3,5,7,9,11,13,15,17,19,21,23,25,27,-1,29,31,33,35,37,39,41,-1,43,-1,-1,45,47,49,51,53,55,57,59,61,63,65,-1,-1,67,-1,69,71,-1,-1,-1,-1,73,75,-1,77,-1,-1,-1,79,81,83,85,87,89,-1,-1,-1,-1,-1,-1,-1,91,93,-1,-1,-1,95,-1,-1,-1,-1,-1,-1,-1,-1,97,99,101,103,105,107,109,111,-1,-1,-1,-1,-1,113,-1,-1,-1,-1,-1,-1,-1,-1,-1,-1,-1,-1,-1,-1,-1,-1,-1,-1,-1,-1],"loss_changes":[2.5269457E1,3.986756E1,1.3056702E1,1.2940955E1,2.3132286E0,2.426562E0,5.143606E0,1.0346089E1,3.0945902E0,2.111023E0,2.4418879E0,1.5492827E0,5.186157E-1,3.4819489E0,0E0,1.6785936E0,5.4983077E0,1.9546833E0,1.4965069E0,7.910788E-1,2.2710571E0,4.3233767E0,0E0,4.3207645E-1,0E0,0E0,7.38224E-1,4.6925316E0,1.7283287E0,8.08054E-1,1.3391266E0,2.7993455E0,3.9635458E0,6.195164E-1,1.8916085E-1,5.269697E-1,1.0519618E-1,0E0,0E0,2.3722305E0,0E0,1.1661081E0,2.2884295E0,0E0,0E0,0E0,0E0,8.846278E-1,8.384509E-1,0E0,3.5531235E-1,0E0,0E0,0E0,2.4540573E-1,2.3326674E0,1.6871573E0,2.6618414E0,2.409997E0,5.0447273E-1,0E0,0E0,0E0,0E0,0E0,0E0,0E0,1.1248025E0,1.3356323E0,0E0,0E0,0E0,2.247107E-1,0E0,0E0,0E0,0E0,0E0,0E0,0E0,0E0,5.75045E-1,7.300205E-1,8.823408E-1,1.8237619E0,1.1371958E0,9.041619E-2,2.8124132E0,3.8219726E0,0E0,0E0,0E0,0E0,0E0,1.0000877E0,0E0,0E0,0E0,0E0,0E0,0E0,0E0,0E0,0E0,0E0,0E0,0E0,0E0,0E0,0E0,0E0,0E0,0E0,0E0,0E0],"parents":[2147483647,0,0,1,1,2,2,3,3,4,4,5,5,6,6,7,7,8,8,9,9,10,10,11,11,12,12,13,13,15,15,16,16,17,17,18,18,19,19,20,20,21,21,23,23,26,26,27,27,28,28,29,29,30,30,31,31,32,32,33,33,34,34,35,35,36,36,39,39,41,41,42,42,47,47,48,48,50,50,54,54,55,55,56,56,57,57,58,58,59,59,67,67,68,68,72,72,81,81,82,82,83,83,84,84,85,85,86,86,87,87,88,88,94,94],"right_children":[2,4,6,8,10,12,14,16,18,20,22,24,26,28,-1,30,32,34,36,38,40,42,-1,44,-1,-1,46,48,50,52,54,56,58,60,62,64,66,-1,-1,68,-1,70,72,-1,-1,-1,-1,74,76,-1,78,-1,-1,-1,80,82,84,86,88,90,-1,-1,-1,-1,-1,-1,-1,92,94,-1,-1,-1,96,-1,-1,-1,-1,-1,-1,-1,-1,98,100,102,104,106,108,110,112,-1,-1,-1,-1,-1,114,-1,-1,-1,-1,-1,-1,-1,-1,-1,-1,-1,-1,-1,-1,-1,-1,-1,-1,-1,-1],"split_conditions":[5.85163E-1,9.9079394E-1,1.1446365E-1,8.404722E0,1.7756414E3,1.6017736E3,1.6325017E-2,4.26986E0,1.5280347E-1,1.6140152E-2,1.4572126E1,2.2375226E0,2.7263355E0,1.0906021E1,2.2045177E-1,2.7805146E-2,8.822624E-3,1.1110051E2,7.142858E-1,8.243518E-1,5.372617E-1,2.1539588E0,2.9635915E-1,1.6689527E-1,-1.5745923E-1,4.1443393E-2,9.506635E1,2.1278916E3,3.710371E-5,1.1175991E1,4.1756576E-1,1.187521E-2,2.5263504E1,6.515569E1,9.7635144E-1,9.704218E-1,9.99986E-1,1.4628652E-1,-8.121049E-2,1.177505E0,-2.1284463E-2,2.442735E-1,1.13473E1,-1.6704405E-2,2.038314E-1,3.3610213E-1,4.307916E-2,1.966748E0,1.0429544E1,4.598847E-2,7.6609607E2,3.3318067E-1,4.0653612E-2,-1.3275167E-1,6.1165375E-1,1.0941951E0,1.3773153E1,6.619803E0,1.1784339E0,9.008062E-1,5.233491E-2,7.7027075E-2,-4.8395373E-2,-1.9532144E-2,2.1557716E-1,-1.6704405E-2,-1.4893346E-1,5.1847763E0,2.8855085E-2,3.1533062E-1,1.0819007E-2,1.7190915E-1,5.8436364E-2,2.6498115E-1,-2.2951927E-2,3.6733836E-2,-1.9682223E-1,-2.2951927E-2,-2.2170466E-1,2.2111708E-1,3.1375017E-2,6.584327E-3,9.9128187E-1,2.9012328E-1,1.01360716E-1,9.084415E-2,3.7536483E0,2.7142305E3,1.4632323E0,3.509798E-1,6.415481E-2,-1.3275167E-1,1.693296E-1,-1.6704405E-2,1.0703306E-2,-1.6704405E-2,-1.8843158E-1,6.415481E-2,-1.4946419E-1,1.0349978E-1,2.623668E-1,-1.6689202E-1,7.7027075E-2,-1.2921973E-1,2.197907E-1,1.3423508E-1,-1.0516292E-1,3.1038678E-1,7.7027075E-2,-1.1405523E-1,1.3695523E-1,6.888099E-2,-9.918289E-2,3.2465118E-1,3.442126E-2],"split_indices":[7,2,3,18,10,10,23,15,25,8,9,20,16,11,0,23,7,17,2,0,7,9,0,2,0,0,17,10,14,12,2,26,4,19,0,0,1,0,0,19,0,24,11,0,0,0,0,7,11,0,10,0,0,0,2,19,11,22,0,2,0,0,0,0,0,0,0,16,7,0,0,0,7,0,0,0,0,0,0,0,0,6,1,24,9,24,20,10,0,0,0,0,0,0,26,0,0,0,0,0,0,0,0,0,0,0,0,0,0,0,0,0,0,0,0],"split_type":[0,0,0,0,0,0,0,0,0,0,0,0,0,0,0,0,0,0,0,0,0,0,0,0,0,0,0,0,0,0,0,0,0,0,0,0,0,0,0,0,0,0,0,0,0,0,0,0,0,0,0,0,0,0,0,0,0,0,0,0,0,0,0,0,0,0,0,0,0,0,0,0,0,0,0,0,0,0,0,0,0,0,0,0,0,0,0,0,0,0,0,0,0,0,0,0,0,0,0,0,0,0,0,0,0,0,0,0,0,0,0,0,0,0,0],"sum_hessian":[4.0986646E2,3.1330573E2,9.6560715E1,2.4072882E2,7.257691E1,1.1773915E1,8.4786804E1,2.1958112E2,2.114771E1,5.5026012E1,1.7550896E1,4.657458E0,7.1164575E0,8.268738E1,2.099424E0,1.1996993E1,2.0758412E2,1.545588E1,5.6918297E0,3.5853226E0,5.144069E1,1.29472685E1,4.603627E0,2.3261383E0,2.3313198E0,1.2902223E0,5.8262353E0,1.2380334E1,7.0307045E1,7.9464426E0,4.0505505E0,2.8064789E1,1.7951933E2,1.3070838E1,2.3850422E0,2.729016E0,2.9628134E0,1.681027E0,1.9042956E0,4.9445263E1,1.9954249E0,5.2815948E0,7.665674E0,1.0048782E0,1.3212601E0,4.5499873E0,1.2762479E0,4.063894E0,8.316441E0,1.9625685E0,6.8344475E1,6.6494117E0,1.297031E0,1.439068E0,2.6114824E0,1.6971464E1,1.1093325E1,9.541439E0,1.6997789E2,1.1870558E1,1.2002805E0,1.0203971E0,1.3646451E0,1.0324701E0,1.696546E0,1.0048782E0,1.9579352E0,2.474984E0,4.697028E1,3.6939552E0,1.5876396E0,1.5079523E0,6.157722E0,2.9970229E0,1.0668709E0,1.3314319E0,6.9850087E0,1.0668709E0,6.72776E1,1.2313184E0,1.380164E0,3.0890572E0,1.3882406E1,7.207139E0,3.886186E0,5.863003E0,3.6784363E0,1.2242694E2,4.7550945E1,1.0760219E1,1.1103388E0,1.439068E0,1.035916E0,1.0048782E0,4.5965405E1,1.0048782E0,5.152844E0,1.1103388E0,1.9787184E0,7.3071437E0,6.5752625E0,6.186742E0,1.0203971E0,1.3491262E0,2.5370595E0,1.7709688E0,4.092034E0,2.658039E0,1.0203971E0,1.1908041E2,3.3465352E0,2.0738165E1,2.681278E1,4.4613186E1,1.352215E0],"tree_param":{"num_deleted":"0","num_feature":"27","num_nodes":"115","size_leaf_vector":"0"}},{"base_weights":[1.1464758E-2,5.686822E-1,-3.987035E-1,7.041611E-2,9.9217045E-1,1.6122931E-1,-5.363764E-1,1.0536947E0,-1.22977674E-1,1.1149067E0,5.1746565E-1,-1.0414371E-1,5.6074643E-1,-2.566828E-1,-6.023479E-1,3.1886257E-2,1.2061608E0,4.0078737E-2,-3.932317E-1,1.1496682E0,-1.8858874E-1,2.3092154E-1,9.7896385E-1,8.6146474E-1,-1.8140261E-1,-5.021453E-2,7.635844E-1,6.957288E-1,-3.02769E-1,-1.8001668E-1,-6.4529073E-1,2.146642E-1,1.3499126E0,-1.3922776E-1,4.3040764E-1,-4.8124623E-1,1.2504405E-1,-1.8281657E-1,1.1716683E0,3.643987E-1,-3.3463135E-1,-1.11619204E-1,1.1794264E0,3.4774104E-1,-3.123267E-1,-3.80566E-1,3.6751688E-1,9.557335E-1,2.1043433E-1,2.7324137E-1,-3.7868574E-1,-3.3289304E-1,3.357629E-1,-6.5629333E-1,4.3159375E-1,-3.5735828E-1,1.01667136E-1,5.8563465E-1,-1.9467618E-1,2.0467755E-1,-5.322163E-1,-3.0162653E-1,7.7860373E-1,6.7580855E-1,1.2292153E0,5.685318E-1,-2.325943E-1,-3.9975804E-1,-1.11619204E-1,6.040698E-1,-3.9975804E-1,1.0751045E-2,-4.1634196E-1,-1.267867E-1,-4.4950473E-1,1.0642904E0,3.816979E-3,-2.477017E-1,7.7185744E-1,6.271589E-1,-2.4672407E-1,-4.3486556E-1,1.2562E-1,2.5981146E-1,-4.536476E-1,7.137664E-1,-2.5253838E-1,-6.7187315E-1,-6.608466E-2,1.9016418E-1,-4.745978E-1,6.2350297E-1,-1.2473007E-1,3.0438933E-1,1.094403E0,-3.7157467E-1,1.2202891E-1,-5.9551996E-1,-1.2950274E-1,-4.6201795E-2,-4.1847512E-1,-1.01644315E-1,9.4027716E-1,1.2527537E0,2.9592216E-1,-1.7792158E-1,6.815833E-1,1.258046E-1,-4.0798554E-1,8.7803197E-1,-2.9131487E-2,4.661612E-1,-3.7209463E-1,-5.109722E-1,-5.0733727E-3,5.3371453E-1,1.2551693E0,-4.484524E-1,1.2202891E-1,1.2202891E-1,8.085145E-1,-4.7092775E-1,2.3468466E-1,6.1116326E-1,-2.3943502E-1,-6.325589E-1,-1.5467562E-1,-6.7888623E-1,1.2202891E-1,-4.165149E-1,5.195615E-1,-3.231811E-1,5.9414554E-1,1.2202891E-1,-5.320297E-1,-1.11619204E-1,8.778396E-1,-2.4983774E-1,4.1250116E-1,-1.2914272E-1,6.121114E-1,-1.11619204E-1,-6.2126005E-1,3.035554E-1,-4.72567E-1,-3.9975804E-1,2.3468466E-1,1.1176697E0,2.146642E-1,1.2202891E-1,1.2700717E0,9.0031177E-1,8.3906785E-2,6.957288E-1,7.2888955E-2,-4.4152558E-1,-8.451636E-2,-4.6201795E-2,-5.511068E-1,-2.805137E-1,2.3806676E-1,-1.2649496E-1,9.462683E-1,-5.305894E-1,-9.49341E-2,2.2897467E-1,-3.5208875E-1,-6.895399E-1,-2.0626222E-1],"categories":[],"categories_nodes":[],"categories_segments":[],"categories_sizes":[],"default_left":[1,1,1,1,1,1,1,1,1,1,1,1,1,1,1,0,1,1,1,1,0,1,1,0,1,1,1,0,1,1,1,0,0,1,1,1,1,0,1,1,1,0,0,1,1,1,0,1,1,1,1,1,1,1,0,1,1,1,1,0,1,1,0,1,1,1,1,0,0,1,0,1,1,0,0,1,0,1,0,1,0,1,1,0,1,0,0,1,1,1,1,1,1,1,0,0,0,1,1,0,0,1,1,1,0,0,1,0,0,0,0,1,1,1,1,1,0,0,0,0,0,1,0,0,0,0,1,1,0,0,0,0,0,0,0,0,0,0,0,0,0,0,0,0,0,0,0,0,0,0,0,0,0,0,0,0,0,0,0,0,0,0,0,0,0,0,0,0,0],"id":2,"left_children":[1,3,5,7,9,11,13,15,17,19,21,23,25,27,29,-1,31,33,35,37,-1,39,41,-1,43,45,47,-1,49,51,53,-1,-1,55,57,59,61,-1,63,65,67,-1,-1,69,71,73,-1,75,77,79,81,83,85,87,-1,89,91,93,95,-1,97,99,-1,101,103,105,107,-1,-1,109,-1,111,113,-1,-1,115,-1,117,-1,119,-1,121,123,-1,125,-1,-1,127,129,131,133,135,137,139,-1,-1,-1,141,143,-1,-1,145,147,149,-1,-1,151,-1,-1,-1,-1,153,155,157,159,161,-1,-1,-1,-1,-1,163,-1,-1,-1,-1,165,167,-1,-1,-1,-1,-1,-1,-1,-1,-1,-1,-1,-1,-1,-1,-1,-1,-1,-1,-1,-1,-1,-1,-1,-1,-1,-1,-1,-1,-1,-1,-1,-1,-1,-1,-1,-1,-1,-1,-1,-1,-1],"loss_changes":[9.387125E1,3.6674416E1,1.8324833E1,1.5547881E1,4.903023E0,5.0902195E0,3.3536644E0,2.053914E0,3.040937E0,3.5638123E0,2.5758834E0,2.3466818E0,2.4052382E0,1.8798952E0,2.6605034E0,0E0,1.3720722E0,3.1201205E0,1.2428017E0,2.3274612E0,0E0,1.207516E0,1.8385754E0,0E0,2.049229E0,9.262817E-1,1.3294706E0,0E0,1.7201905E0,1.3353415E0,1.9252739E0,0E0,0E0,1.6503813E0,1.4731731E0,8.9096785E-1,1.5056926E0,0E0,1.196785E0,1.6084589E0,2.8328001E-3,0E0,0E0,1.3967443E0,7.768142E-1,7.2770715E-3,0E0,1.0712109E0,1.4759476E0,1.053915E0,9.919925E-1,1.0104989E0,1.0799298E0,1.2206917E0,0E0,1.139229E0,1.8942224E0,1.308193E0,2.4350537E-1,0E0,4.6075916E-1,8.447236E-2,0E0,2.071445E0,1.0010452E0,9.0752506E-1,2.899603E-1,0E0,0E0,8.735162E-1,0E0,1.3193171E0,6.750057E-1,0E0,0E0,2.7568054E-1,0E0,3.1506866E-1,0E0,1.9353473E-1,0E0,8.347173E-1,8.7166685E-1,0E0,4.7584152E-1,0E0,0E0,8.285446E-1,1.1701821E0,9.377544E-1,5.359173E-1,9.989562E-1,8.7977713E-1,1.2493486E0,0E0,0E0,0E0,1.5429688E-1,7.5910604E-1,0E0,0E0,4.2886597E-1,6.9560814E-1,1.0316391E0,0E0,0E0,1.0093386E0,0E0,0E0,0E0,0E0,2.6035678E-1,4.507959E-2,2.3836994E-1,3.525288E-1,1.2663938E0,0E0,0E0,0E0,0E0,0E0,5.95521E-1,0E0,0E0,0E0,0E0,4.8498118E-1,5.2700806E-1,0E0,0E0,0E0,0E0,0E0,0E0,0E0,0E0,0E0,0E0,0E0,0E0,0E0,0E0,0E0,0E0,0E0,0E0,0E0,0E0,0E0,0E0,0E0,0E0,0E0,0E0,0E0,0E0,0E0,0E0,0E0,0E0,0E0,0E0,0E0,0E0,0E0,0E0,0E0,0E0,0E0],"parents":[2147483647,0,0,1,1,2,2,3,3,4,4,5,5,6,6,7,7,8,8,9,9,10,10,11,11,12,12,13,13,14,14,16,16,17,17,18,18,19,19,21,21,22,22,24,24,25,25,26,26,28,28,29,29,30,30,33,33,34,34,35,35,36,36,38,38,39,39,40,40,43,43,44,44,45,45,47,47,48,48,49,49,50,50,51,51,52,52,53,53,55,55,56,56,57,57,58,58,60,60,61,61,63,63,64,64,65,65,66,66,69,69,71,71,72,72,75,75,77,77,79,79,81,81,82,82,84,84,87,87,88,88,89,89,90,90,91,91,92,92,93,93,97,97,98,98,101,101,102,102,103,103,106,106,111,111,112,112,113,113,114,114,115,115,121,121,126,126,127,127],"right_children":[2,4,6,8,10,12,14,16,18,20,22,24,26,28,30,-1,32,34,36,38,-1,40,42,-1,44,46,48,-1,50,52,54,-1,-1,56,58,60,62,-1,64,66,68,-1,-1,70,72,74,-1,76,78,80,82,84,86,88,-1,90,92,94,96,-1,98,100,-1,102,104,106,108,-1,-1,110,-1,112,114,-1,-1,116,-1,118,-1,120,-1,122,124,-1,126,-1,-1,128,130,132,134,136,138,140,-1,-1,-1,142,144,-1,-1,146,148,150,-1,-1,152,-1,-1,-1,-1,154,156,158,160,162,-1,-1,-1,-1,-1,164,-1,-1,-1,-1,166,168,-1,-1,-1,-1,-1,-1,-1,-1,-1,-1,-1,-1,-1,-1,-1,-1,-1,-1,-1,-1,-1,-1,-1,-1,-1,-1,-1,-1,-1,-1,-1,-1,-1,-1,-1,-1,-1,-1,-1,-1,-1],"split_conditions":[1.2448617E-3,1.426451E-1,1.23551674E-1,1.6325567E-2,7.057519E-1,5.013031E-1,1.4663514E-1,9.407639E0,1.7673143E3,4.7056307E-4,1.5138067E-1,1.0169929E-1,1.2200748E1,2.0010763E-1,5.194719E-2,9.565878E-3,1.1770152E0,1.21339105E-1,1.2258566E1,2.7926976E-2,-5.6576625E-2,1.358335E-1,2.3096404E0,2.5843942E-1,2.923994E0,5.384979E2,1.5254862E1,2.0871864E-1,6.6159725E-1,4.4920766E-1,9.9012814E-2,6.4399265E-2,4.049738E-1,8.533248E-1,6.693635E-1,4.8442606E-2,5.7196137E-2,-5.484497E-2,1.1882603E3,1.5017465E-1,5.80328E-1,-3.3485763E-2,3.5382795E-1,4.857068E-1,3.5435647E-2,4.861271E-3,1.1025507E-1,1.1960421E-2,9.262876E-3,9.128899E-2,7.91636E-2,1.2632855E3,1.7780012E0,9.472359E0,1.2947813E-1,8.948335E1,7.925887E-3,1.5E0,4.025767E0,6.1403267E-2,4.558649E-2,9.8441315E1,2.3358113E-1,1.2466942E1,8.177967E-1,3.2923454E-3,6.6144617E2,-1.19927414E-1,-3.3485763E-2,2.1013983E-2,-1.19927414E-1,1.4232065E3,1.0138102E0,-3.803601E-2,-1.3485143E-1,1.27962E1,1.1450937E-3,2.56822E-1,2.3155724E-1,1.2982103E-1,-7.401723E-2,1.2257736E1,9.733968E2,7.7943444E-2,4.3713525E-3,2.1412992E-1,-7.576152E-2,7.0461226E3,6.961489E-1,9.5101666E-1,2.3178835E0,4.0324503E-3,1.6592767E-2,4.361824E-3,3.2832092E-1,-1.11472405E-1,3.6608674E-2,8.022194E1,4.1855713E-3,-1.38605395E-2,-1.2554254E-1,6.9829364E0,2.374123E-1,7.7781594E-1,8.877665E-2,-5.3376477E-2,4.5662217E-2,3.774138E-2,-1.22395664E-1,2.634096E-1,-8.739446E-3,1.3736103E1,1.5431899E-1,5.298709E-3,3.746945E2,7.701988E-2,3.765508E-1,-1.3453573E-1,3.6608674E-2,3.6608674E-2,2.4255435E-1,1.292803E1,7.04054E-2,1.8334898E-1,-7.183051E-2,-1.8976767E-1,1.3785881E-1,3.2278642E-2,3.6608674E-2,-1.2495448E-1,1.5586847E-1,-9.695433E-2,1.7824367E-1,3.6608674E-2,-1.5960892E-1,-3.3485763E-2,2.633519E-1,-7.495133E-2,1.2375035E-1,-3.8742818E-2,1.8363342E-1,-3.3485763E-2,-1.8637802E-1,9.106662E-2,-1.4177011E-1,-1.19927414E-1,7.04054E-2,3.3530092E-1,6.4399265E-2,3.6608674E-2,3.8102153E-1,2.7009353E-1,2.5172036E-2,2.0871864E-1,2.1866687E-2,-1.3245767E-1,-2.5354909E-2,-1.38605395E-2,-1.6533205E-1,-8.4154114E-2,7.142003E-2,-3.794849E-2,2.838805E-1,-1.5917683E-1,-2.848023E-2,6.86924E-2,-1.0562663E-1,-2.0686199E-1,-6.1878666E-2],"split_indices":[3,25,6,8,2,3,7,15,10,14,8,21,15,24,3,0,19,8,11,9,0,6,18,0,18,4,19,0,0,8,14,0,0,0,8,24,7,0,10,21,0,0,0,3,6,26,0,26,8,8,8,10,5,18,0,4,26,13,16,0,25,15,0,11,25,23,4,0,0,23,0,10,5,0,0,11,0,25,0,21,0,18,10,0,23,0,0,4,8,19,16,23,23,23,0,0,0,17,23,0,0,19,24,1,0,0,23,0,0,0,0,11,3,7,4,6,0,0,0,0,0,13,0,0,0,0,21,23,0,0,0,0,0,0,0,0,0,0,0,0,0,0,0,0,0,0,0,0,0,0,0,0,0,0,0,0,0,0,0,0,0,0,0,0,0,0,0,0,0],"split_type":[0,0,0,0,0,0,0,0,0,0,0,0,0,0,0,0,0,0,0,0,0,0,0,0,0,0,0,0,0,0,0,0,0,0,0,0,0,0,0,0,0,0,0,0,0,0,0,0,0,0,0,0,0,0,0,0,0,0,0,0,0,0,0,0,0,0,0,0,0,0,0,0,0,0,0,0,0,0,0,0,0,0,0,0,0,0,0,0,0,0,0,0,0,0,0,0,0,0,0,0,0,0,0,0,0,0,0,0,0,0,0,0,0,0,0,0,0,0,0,0,0,0,0,0,0,0,0,0,0,0,0,0,0,0,0,0,0,0,0,0,0,0,0,0,0,0,0,0,0,0,0,0,0,0,0,0,0,0,0,0,0,0,0,0,0,0,0,0,0],"sum_hessian":[4.0872797E2,1.731354E2,2.3559254E2,8.008069E1,9.3054726E1,4.6460583E1,1.8913197E2,1.2430652E1,6.765003E1,7.286631E1,2.0188417E1,2.8361334E1,1.8099249E1,3.702996E1,1.52102E2,1.7709688E0,1.0659683E1,4.2724262E1,2.492577E1,7.108853E1,1.7777777E0,1.3380712E1,6.807707E0,1.3491262E0,2.7012209E1,4.6987505E0,1.3400498E1,1.0585177E0,3.5971443E1,1.4517571E1,1.3758444E2,1.6655082E0,8.994175E0,2.971658E1,1.3007684E1,2.1368397E1,3.5573738E0,1.035916E0,7.005261E1,1.1113477E1,2.2672343E0,1.1258577E0,5.681849E0,5.029381E0,2.1982828E1,2.6734753E0,2.0252752E0,9.405489E0,3.9950094E0,3.886186E0,3.2085255E1,1.1471899E1,3.0456722E0,1.3657956E2,1.0048782E0,1.5341435E1,1.4375143E1,1.0470624E1,2.5370595E0,1.269439E0,2.0098957E1,2.478073E0,1.079301E0,8.609714E0,6.14429E1,8.3172035E0,2.7962732E0,1.1413766E0,1.1258577E0,3.8880043E0,1.1413766E0,5.57212E0,1.6410707E1,1.1775959E0,1.4958793E0,8.336717E0,1.0687723E0,2.5075662E0,1.4874432E0,2.1896398E0,1.696546E0,2.899311E1,3.0921462E0,1.7467397E0,9.725159E0,1.7244121E0,1.3212601E0,1.3293216E2,3.6473985E0,2.5959635E0,1.2745472E1,3.8188457E0,1.0556297E1,7.772372E0,2.6982524E0,1.5166625E0,1.0203971E0,1.695499E1,3.1439672E0,1.2157995E0,1.2622733E0,2.3416572E0,6.2680564E0,5.9597507E1,1.8453916E0,1.0184957E0,7.298708E0,1.0116869E0,1.7845864E0,2.4439461E0,1.4440582E0,2.4454906E0,3.1266298E0,1.3143942E1,3.2667654E0,3.2100368E0,5.1266794E0,1.4871691E0,1.0203971E0,1.0203971E0,1.1692427E0,2.779283E1,1.2002805E0,1.0377345E0,2.0544116E0,5.3861756E0,4.3389835E0,1.3191176E2,1.0203971E0,2.4626367E0,1.1847616E0,1.2313184E0,1.3646451E0,1.0203971E0,1.1725075E1,1.1258577E0,2.6929882E0,8.99625E0,1.5600475E0,3.4675148E0,4.304857E0,1.1258577E0,1.5829133E1,1.4406124E0,1.7033548E0,1.1413766E0,1.2002805E0,4.602548E0,1.6655082E0,1.0203971E0,5.857711E1,4.9725695E0,2.3261383E0,1.0585177E0,1.3869728E0,2.0873508E0,1.0392789E0,1.2157995E0,1.1928143E1,1.4595771E0,1.8071882E0,1.5011436E0,1.7088932E0,2.3631828E1,4.161001E0,1.4198291E0,2.9191542E0,1.2855498E2,3.3567898E0],"tree_param":{"num_deleted":"0","num_feature":"27","num_nodes":"169","size_leaf_vector":"0"}},{"base_weights":[-1.3647127E-2,-2.8768876E-1,6.9441944E-1,-4.886234E-1,1.4417872E-2,-4.095652E-1,8.658123E-1,6.278957E-2,-5.691081E-1,-1.1713286E-1,6.6877526E-1,-5.9553975E-1,5.600154E-1,9.0313405E-1,-3.2052702E-1,-3.8740152E-1,8.115708E-1,2.0334458E-2,-6.066984E-1,-6.116759E-1,2.083256E-2,9.3580717E-1,-3.717134E-1,-1.7102821E-1,-6.2139225E-1,9.200873E-1,-2.501857E-1,8.888749E-3,-4.4761103E-1,1.9679241E-1,-5.6902206E-1,-2.069415E-1,9.673987E-1,4.5186323E-1,-6.091771E-1,-4.2356128E-1,-6.470258E-1,-6.653034E-1,1.8338186E-1,-6.067317E-1,1.890548E-1,-2.958895E-1,1.0419745E0,7.3948994E-2,-5.1876795E-1,9.3971884E-1,-7.8176804E-2,6.7574775E-1,-2.5865513E-1,-6.354464E-1,-1.18149556E-1,-2.671041E-1,8.582836E-1,-5.01343E-1,4.835092E-1,-7.7495456E-2,-6.541172E-1,-6.606869E-1,6.606184E-2,-4.3931842E-1,3.9495748E-1,2.9492993E-2,9.6202904E-1,-3.76807E-1,-2.0882932E-2,-1.2343663E-1,-6.0205334E-1,-6.58505E-1,-1.9376187E-1,-6.0166925E-1,3.8675636E-1,-3.6907262E-1,5.9026176E-1,-4.5804998E-1,5.50375E-1,9.737328E-1,-3.849411E-3,-4.7793135E-1,5.508932E-1,1.7065383E-1,-6.558851E-1,-6.413203E-1,-9.052803E-2,-7.237151E-2,6.474616E-1,-4.85076E-1,2.171109E-1,8.0260986E-1,6.1712094E-2,3.2097518E-1,9.8738295E-1],"categories":[],"categories_nodes":[],"categories_segments":[],"categories_sizes":[],"default_left":[1,1,1,1,1,1,1,1,1,1,1,1,0,1,1,1,1,1,1,1,1,1,1,0,0,1,0,0,0,1,1,0,0,1,0,1,1,0,0,1,1,0,0,0,0,1,0,0,0,0,0,1,0,1,0,0,1,0,0,1,1,1,1,0,0,1,1,0,0,1,1,1,1,0,0,1,0,0,0,0,0,0,0,0,0,0,0,0,0,0,0],"id":3,"left_children":[1,3,5,7,9,11,13,15,17,19,21,23,-1,25,27,29,31,33,35,37,39,41,43,-1,-1,45,-1,-1,-1,47,49,-1,-1,51,-1,53,55,-1,-1,57,59,-1,-1,-1,-1,61,-1,-1,-1,-1,-1,63,-1,65,-1,-1,67,-1,-1,69,71,73,75,-1,-1,77,79,-1,-1,81,83,85,87,-1,-1,89,-1,-1,-1,-1,-1,-1,-1,-1,-1,-1,-1,-1,-1,-1,-1],"loss_changes":[7.710658E1,1.7396154E1,2.1336075E1,7.6720047E0,1.0011619E1,3.142947E0,4.5535583E0,8.005707E0,3.3414268E0,6.6262474E0,5.755954E0,4.25148E-2,0E0,2.060913E0,1.5784407E-1,1.695673E0,1.6111898E0,2.984959E0,7.693062E-1,1.0248713E0,8.21766E0,2.370963E0,3.4578907E-1,0E0,0E0,1.8860016E0,0E0,0E0,0E0,1.109059E0,2.7362657E-1,0E0,0E0,2.1262858E0,0E0,2.2454324E0,4.092636E-1,0E0,0E0,6.412554E-1,8.103623E0,0E0,0E0,0E0,0E0,1.8151474E0,0E0,0E0,0E0,0E0,0E0,7.6061144E-2,0E0,9.39538E-1,0E0,0E0,9.9342346E-2,0E0,0E0,2.3249283E0,7.185007E0,1.0656344E0,1.0050735E0,0E0,0E0,1.9039259E0,9.7611904E-1,0E0,0E0,2.1411657E-1,4.2643002E-1,7.935215E-1,4.167223E0,0E0,0E0,4.6290588E-1,0E0,0E0,0E0,0E0,0E0,0E0,0E0,0E0,0E0,0E0,0E0,0E0,0E0,0E0,0E0],"parents":[2147483647,0,0,1,1,2,2,3,3,4,4,5,5,6,6,7,7,8,8,9,9,10,10,11,11,13,13,14,14,15,15,16,16,17,17,18,18,19,19,20,20,21,21,22,22,25,25,29,29,30,30,33,33,35,35,36,36,39,39,40,40,45,45,51,51,53,53,56,56,59,59,60,60,61,61,62,62,65,65,66,66,69,69,70,70,71,71,72,72,75,75],"right_children":[2,4,6,8,10,12,14,16,18,20,22,24,-1,26,28,30,32,34,36,38,40,42,44,-1,-1,46,-1,-1,-1,48,50,-1,-1,52,-1,54,56,-1,-1,58,60,-1,-1,-1,-1,62,-1,-1,-1,-1,-1,64,-1,66,-1,-1,68,-1,-1,70,72,74,76,-1,-1,78,80,-1,-1,82,84,86,88,-1,-1,90,-1,-1,-1,-1,-1,-1,-1,-1,-1,-1,-1,-1,-1,-1,-1],"split_conditions":[5.4282624E-1,7.129649E-5,1.1491221E-1,7.868067E-4,2.244254E3,1.0084299E1,1.6181614E-2,1.6249744E2,3.8508993E-1,1.1103945E1,1.0979854E0,1.4611501E1,1.6800462E-1,9.372523E-1,2.0654485E-2,9.760549E-1,2.615449E0,1.3480879E2,-2.252476E-16,3.988125E3,3.2257922E-2,2.6744223E0,7.5577796E-1,-5.1308464E-2,-1.8641768E-1,1.725735E0,-7.505571E-2,2.666625E-3,-1.3428332E-1,1.7834006E2,9.935626E1,-6.208245E-2,2.9021963E-1,1.9959417E-17,-1.8275315E-1,-3.8995078E-16,7.424873E-1,-1.9959103E-1,5.5014558E-2,5.261695E-1,3.2258797E-3,-8.876685E-2,3.125924E-1,2.21847E-2,-1.556304E-1,2.5152221E-5,-2.3453042E-2,2.0272434E-1,-7.7596545E-2,-1.9063394E-1,-3.5444867E-2,2.4143013E-1,2.574851E-1,9.1130035E1,1.4505278E-1,-2.3248637E-2,3.281104E-1,-1.9820608E-1,1.9818552E-2,6.817346E1,5.952243E0,3.5281973E0,9.210861E0,-1.1304211E-1,-6.26488E-3,5.1785235E0,1.4463777E-3,-1.9755152E-1,-5.812856E-2,1.3788774E0,1.9137638E1,4.6469793E0,1.5829628E1,-1.37415E-1,1.651125E-1,1.0064216E-1,-1.1548233E-3,-1.433794E-1,1.6526796E-1,5.1196154E-2,-1.9676554E-1,-1.9239609E-1,-2.7158411E-2,-2.1711454E-2,1.9423848E-1,-1.455228E-1,6.513327E-2,2.4078296E-1,1.851363E-2,9.629256E-2,2.962149E-1],"split_indices":[7,14,3,26,10,13,23,15,0,11,5,9,0,3,23,1,19,4,14,4,7,18,1,0,0,5,0,0,0,4,17,0,0,14,0,14,1,0,0,5,3,0,0,0,0,14,0,0,0,0,0,6,0,17,0,0,7,0,0,15,15,16,18,0,0,18,26,0,0,5,19,18,9,0,0,21,0,0,0,0,0,0,0,0,0,0,0,0,0,0,0],"split_type":[0,0,0,0,0,0,0,0,0,0,0,0,0,0,0,0,0,0,0,0,0,0,0,0,0,0,0,0,0,0,0,0,0,0,0,0,0,0,0,0,0,0,0,0,0,0,0,0,0,0,0,0,0,0,0,0,0,0,0,0,0,0,0,0,0,0,0,0,0,0,0,0,0,0,0,0,0,0,0,0,0,0,0,0,0,0,0,0,0,0,0],"sum_hessian":[3.9534564E2,2.854588E2,1.0988686E2,1.7106444E2,1.1439435E2,1.4580506E1,9.530636E1,2.181645E1,1.4924799E2,9.59298E1,1.8464544E1,1.2557615E1,2.022891E0,9.263095E1,2.6754093E0,1.3926201E1,7.8902507E0,8.974859E0,1.4027313E2,2.0175674E1,7.575413E1,1.4773634E1,3.6909108E0,1.1580112E0,1.1399604E1,9.148834E1,1.1426057E0,1.0037179E0,1.6716914E0,3.2829256E0,1.0643275E1,1.0034636E0,6.886787E0,5.492182E0,3.482678E0,2.73902E1,1.12882935E2,1.9053684E1,1.1219897E0,1.5462715E1,6.0291412E1,1.0305647E0,1.374307E1,1.0390637E0,2.651847E0,8.978137E1,1.706969E0,1.3644009E0,1.9185247E0,8.919802E0,1.7234727E0,2.1072302E0,3.3849518E0,2.5638943E1,1.7512574E0,1.5349548E0,1.1134798E2,1.4331392E1,1.131323E0,1.4600382E1,4.569103E1,2.2034948E0,8.757788E1,1.0908473E0,1.0163829E0,5.863258E0,1.9775684E1,1.0987034E2,1.4776407E0,1.2429274E1,2.171108E0,9.120788E0,3.6570244E1,1.2004788E0,1.003016E0,8.652134E1,1.0565356E0,4.033893E0,1.8293649E0,1.146634E0,1.8629051E1,1.1298154E1,1.1311206E0,1.0479553E0,1.1231527E0,7.757995E0,1.362792E0,2.5718971E1,1.0851273E1,2.2743573E0,8.424699E1],"tree_param":{"num_deleted":"0","num_feature":"27","num_nodes":"91","size_leaf_vector":"0"}},{"base_weights":[2.1871729E-3,1.14270754E-1,-3.7457317E-1,-3.0301467E-2,5.505869E-1,-5.092639E-1,6.5001655E-1,5.025424E-1,-1.0078781E-1,-4.5605195E-1,5.7708025E-1,5.124935E-1,-5.494601E-1,-1.24817535E-1,7.616765E-1,-3.8326178E-2,7.6988286E-1,6.864533E-2,-2.3803264E-1,6.5179294E-1,2.4614339E-1,7.753934E-1,-7.4144594E-2,-5.7015747E-1,4.6545082E-1,1.0255891E-1,8.5749716E-1,3.067292E-1,-5.4944706E-1,-2.6524832E-2,9.513919E-1,7.655964E-1,-8.590772E-3,-2.8541115E-1,3.013584E-1,2.3509417E-1,7.3852926E-1,7.8588784E-2,7.4004394E-1,-5.969357E-1,1.8745406E-2,2.283313E-1,9.1621304E-1,-2.2436664E-1,5.1888156E-1,4.6705416E-1,-3.5321817E-1,1.8036766E-1,1.0025084E0,3.3688068E-1,9.932013E-1,-1.0847502E-1,3.5229635E-1,2.6110816E-1,-3.2095844E-1,5.162549E-1,-4.582191E-1,5.323447E-1,-3.306895E-1,7.946485E-1,3.4722856E-1,4.4966364E-1,-3.8113388E-1,2.771622E-1,-6.1276656E-1,7.0241934E-1,-4.8807684E-1,7.083535E-1,4.7466185E-2,-8.124124E-2,-4.4600838E-1,-1.8989405E-1,6.507502E-1,-1.941109E-1,4.1163456E-1,-2.680147E-1,6.567917E-1,-3.983813E-1,4.7674584E-1,2.2059885E-1,-3.6043876E-1,-9.845044E-2,6.2824106E-1,7.275679E-1,-8.911959E-2,1.7362458E-1,-5.1992965E-1,-1.2849438E-1,8.246879E-1,6.58732E-1,-3.2309237E-1,-2.0759274E-1,6.302974E-1,-6.401598E-1,1.6863678E-1,-1.0079079E-1,-6.280548E-1,-5.799259E-1,-6.417858E-2,6.699139E-1,-4.7260797E-1,4.8928246E-1,-4.9972007E-1,-9.3406975E-2,8.1401014E-1,-8.6623095E-2,6.275048E-1,5.9187967E-1,-4.8081753E-1,-4.0315518E-1,1.0727221E-2,1.8525326E-1,7.4470556E-1,9.163448E-1,2.4283868E-1,3.077241E-1,8.5799253E-1,8.733077E-1,-1.2329866E-1,-6.305086E-2,-4.125008E-1,7.566792E-1,7.4335024E-2,2.679542E-1,-3.7904894E-1,-4.4411957E-2,-6.359955E-1],"categories":[],"categories_nodes":[],"categories_segments":[],"categories_sizes":[],"default_left":[1,1,1,1,1,1,1,1,1,0,1,1,1,0,1,1,1,1,1,1,1,0,0,1,0,0,1,1,0,1,1,1,1,1,1,1,1,1,0,1,1,0,0,0,1,0,1,0,0,1,0,1,1,1,1,1,0,1,1,1,1,1,1,0,1,0,0,0,0,0,0,0,0,1,1,1,1,0,1,1,1,0,1,1,0,0,0,0,1,1,1,0,1,0,0,1,1,0,0,0,0,0,0,0,0,0,0,0,0,0,0,0,0,0,0,0,0,0,0,0,0,0,0,0,0,0,0],"id":4,"left_children":[1,3,5,7,9,11,13,15,17,-1,19,21,23,-1,25,27,29,31,33,35,37,-1,-1,39,-1,-1,41,43,-1,45,47,49,51,53,55,57,59,61,-1,63,65,-1,-1,-1,67,-1,69,-1,-1,71,-1,73,75,77,79,81,-1,83,85,87,89,91,93,-1,95,-1,-1,-1,-1,-1,-1,-1,-1,97,99,101,103,-1,105,107,109,-1,111,113,-1,-1,-1,-1,115,117,119,-1,121,-1,-1,123,125,-1,-1,-1,-1,-1,-1,-1,-1,-1,-1,-1,-1,-1,-1,-1,-1,-1,-1,-1,-1,-1,-1,-1,-1,-1,-1,-1,-1,-1,-1],"loss_changes":[1.6770638E1,1.9323126E1,1.2897359E1,8.720601E0,2.2960815E0,3.6099567E0,1.0484037E0,3.9532447E0,4.7765017E0,0E0,1.6868649E0,6.1037284E-1,1.9133987E0,0E0,5.292139E-1,1.9195913E0,2.6571846E0,4.97968E0,2.981933E0,2.0074425E0,1.2135818E0,0E0,0E0,1.2307663E0,0E0,0E0,1.009531E-1,8.565631E-1,0E0,8.667731E-1,4.0464687E-1,5.658455E-1,3.0718477E0,2.1175003E0,1.8094957E0,2.1713014E0,8.1067276E-1,2.3197315E0,0E0,1.1938705E0,1.8442918E0,0E0,0E0,0E0,4.125998E-1,0E0,4.422739E-2,0E0,0E0,9.028827E-1,0E0,3.0497885E0,3.6663463E0,1.1775029E0,2.1906157E0,6.112826E-1,0E0,1.0549471E0,5.3911453E-1,1.2844982E0,1.8796351E0,1.0126462E0,9.860412E-1,0E0,5.080662E-1,0E0,0E0,0E0,0E0,0E0,0E0,0E0,0E0,2.8669007E0,2.5426514E0,1.4367177E0,1.5721002E0,0E0,5.374987E-1,2.1933222E0,1.4694519E0,0E0,2.1735573E-1,3.5571575E-1,0E0,0E0,0E0,0E0,4.4695854E-1,1.0774155E0,4.84733E-2,0E0,3.7052894E-1,0E0,0E0,4.4096535E-1,2.9937363E-1,0E0,0E0,0E0,0E0,0E0,0E0,0E0,0E0,0E0,0E0,0E0,0E0,0E0,0E0,0E0,0E0,0E0,0E0,0E0,0E0,0E0,0E0,0E0,0E0,0E0,0E0,0E0,0E0,0E0,0E0],"parents":[2147483647,0,0,1,1,2,2,3,3,4,4,5,5,6,6,7,7,8,8,10,10,11,11,12,12,14,14,15,15,16,16,17,17,18,18,19,19,20,20,23,23,26,26,27,27,29,29,30,30,31,31,32,32,33,33,34,34,35,35,36,36,37,37,39,39,40,40,44,44,46,46,49,49,51,51,52,52,53,53,54,54,55,55,57,57,58,58,59,59,60,60,61,61,62,62,64,64,73,73,74,74,75,75,76,76,78,78,79,79,80,80,82,82,83,83,88,88,89,89,90,90,92,92,95,95,96,96],"right_children":[2,4,6,8,10,12,14,16,18,-1,20,22,24,-1,26,28,30,32,34,36,38,-1,-1,40,-1,-1,42,44,-1,46,48,50,52,54,56,58,60,62,-1,64,66,-1,-1,-1,68,-1,70,-1,-1,72,-1,74,76,78,80,82,-1,84,86,88,90,92,94,-1,96,-1,-1,-1,-1,-1,-1,-1,-1,98,100,102,104,-1,106,108,110,-1,112,114,-1,-1,-1,-1,116,118,120,-1,122,-1,-1,124,126,-1,-1,-1,-1,-1,-1,-1,-1,-1,-1,-1,-1,-1,-1,-1,-1,-1,-1,-1,-1,-1,-1,-1,-1,-1,-1,-1,-1,-1,-1],"split_conditions":[5.352297E-1,9.907534E-1,1.7179718E0,1.2215737E-1,8.2266815E-3,1.0138606E-3,1.287097E3,2.5262532E-1,1.9395954E1,-1.368156E-1,1.1195825E0,3.9216423E1,9.691222E-1,-3.7445262E-2,7.300389E1,1.0672015E-2,1.2335177E-1,4.4566236E-4,1.328126E0,6.540654E-1,2.9935414E-1,2.3261803E-1,-2.2243379E-2,7.902144E2,1.3963525E-1,3.0767674E-2,1.6880378E-1,1.0509817E3,-1.6483413E-1,7.397E1,2.871501E0,4.9456093E1,3.811006E0,8.847335E-3,3.574612E2,9.023781E0,8.050872E-1,8.180275E-2,2.2201319E-1,9.757408E-2,4.972204E-3,6.8499394E-2,2.7486393E-1,-6.730999E-2,5.977884E-16,1.4011626E-1,1.4807194E-1,5.41103E-2,3.0075252E-1,1.5847214E1,2.979604E-1,1.8078735E1,4.2268764E-3,2.6320815E-1,7.6623634E1,8.880301E-1,-1.3746575E-1,9.2230385E1,5.656271E-1,2.9899239E1,1.6426156E0,4.0793024E-2,2.3701744E0,8.314866E-2,2.1165607E0,2.1072581E-1,-1.4642306E-1,2.1250607E-1,1.4239856E-2,-2.4372375E-2,-1.3380252E-1,-5.6968216E-2,1.9522507E-1,9.8181593E-1,6.178951E-1,5.7058573E0,3.1240382E-3,-1.1951439E-1,5.3370586E-3,9.405656E-2,8.991561E-1,-2.9535132E-2,1.724344E-3,8.498502E-3,-2.6735878E-2,5.2087374E-2,-1.559789E-1,-3.8548317E-2,1.8842964E0,7.680364E-1,2.9613042E0,-6.2277824E-2,8.128212E-1,-1.9204794E-1,5.0591037E-2,6.256567E-1,2.942108E-16,-1.7397778E-1,-1.9253574E-2,2.0097418E-1,-1.417824E-1,1.4678474E-1,-1.4991602E-1,-2.8022094E-2,2.4420305E-1,-2.598693E-2,1.8825145E-1,1.775639E-1,-1.4424527E-1,-1.2094656E-1,3.2181665E-3,5.557598E-2,2.2341168E-1,2.7490345E-1,7.2851606E-2,9.231723E-2,2.5739777E-1,2.6199234E-1,-3.69896E-2,-1.8915258E-2,-1.2375025E-1,2.2700377E-1,2.2300508E-2,8.0386266E-2,-1.1371469E-1,-1.3323587E-2,-1.9079866E-1],"split_indices":[7,2,5,5,8,25,10,24,15,0,5,9,3,0,17,26,21,23,5,5,25,0,0,4,0,0,2,10,0,4,18,19,16,6,4,12,0,8,0,21,14,0,0,0,14,0,3,0,0,15,0,22,23,2,17,20,0,17,3,4,22,6,20,0,18,0,0,0,0,0,0,0,0,1,24,15,26,0,23,25,2,0,26,14,0,0,0,0,16,24,16,0,24,0,0,3,14,0,0,0,0,0,0,0,0,0,0,0,0,0,0,0,0,0,0,0,0,0,0,0,0,0,0,0,0,0,0],"split_type":[0,0,0,0,0,0,0,0,0,0,0,0,0,0,0,0,0,0,0,0,0,0,0,0,0,0,0,0,0,0,0,0,0,0,0,0,0,0,0,0,0,0,0,0,0,0,0,0,0,0,0,0,0,0,0,0,0,0,0,0,0,0,0,0,0,0,0,0,0,0,0,0,0,0,0,0,0,0,0,0,0,0,0,0,0,0,0,0,0,0,0,0,0,0,0,0,0,0,0,0,0,0,0,0,0,0,0,0,0,0,0,0,0,0,0,0,0,0,0,0,0,0,0,0,0,0,0],"sum_hessian":[3.9512534E2,3.0506677E2,9.005855E1,2.2984033E2,7.5226456E1,8.0039635E1,1.00189085E1,2.613585E1,2.0370448E2,1.5133054E0,7.371315E1,2.5848532E0,7.745478E1,1.2471071E0,8.771801E0,8.928612E0,1.720724E1,9.138572E1,1.1231876E2,5.9345657E1,1.4367488E1,1.562753E0,1.0221002E0,7.633626E1,1.1185261E0,1.3761383E0,7.395663E0,5.568937E0,3.3596747E0,3.352283E0,1.3854958E1,8.227877E0,8.3157845E1,1.03682465E2,8.636294E0,1.0863875E1,4.8481785E1,1.1593529E1,2.7739592E0,7.300306E1,3.3331954E0,1.0485674E0,6.3470955E0,1.5731606E0,3.9957762E0,1.164013E0,2.1882699E0,1.1429945E0,1.2711963E1,3.7134147E0,4.514462E0,6.567901E1,1.7478836E1,5.944455E0,9.7738014E1,6.981467E0,1.6548282E0,7.160831E0,3.7030442E0,4.1499287E1,6.9824977E0,6.427399E0,5.16613E0,1.0049914E0,7.199807E1,1.2547209E0,2.0784743E0,2.491699E0,1.5040772E0,1.0337594E0,1.1545105E0,1.5339463E0,2.1794684E0,5.6931965E1,8.747042E0,5.794407E0,1.1684428E1,1.2559373E0,4.6885176E0,6.329384E0,9.140863E1,1.0944989E0,5.8869677E0,5.319167E0,1.8416638E0,1.0329118E0,2.6701324E0,1.2045522E0,4.0294735E1,4.778964E0,2.203534E0,1.3534548E0,5.0739446E0,3.3998632E0,1.7662666E0,2.307766E0,6.969031E1,1.3470375E1,4.346159E1,6.9572716E0,1.7897701E0,1.0970833E0,4.697324E0,2.0947583E0,9.58967E0,1.0795991E0,3.6089184E0,4.2407775E0,2.0886064E0,8.189714E1,9.51149E0,1.7648345E0,4.1221333E0,3.1874096E0,2.1317573E0,3.0585587E0,3.7236176E1,3.6584349E0,1.1205292E0,1.0000681E0,1.2034657E0,3.8400056E0,1.2339387E0,1.0084319E0,1.299334E0,1.0239362E0,6.866637E1],"tree_param":{"num_deleted":"0","num_feature":"27","num_nodes":"127","size_leaf_vector":"0"}},{"base_weights":[2.8437846E-3,4.0266275E-1,-3.4335145E-1,1.141204E-2,6.3176805E-1,-6.849073E-2,-5.322867E-1,7.3809284E-1,-1.2945327E-1,-3.1555852E-1,6.61098E-1,-1.6441281E-1,4.442082E-1,-5.4749405E-1,5.216312E-1,2.9771661E-2,8.9165324E-1,-2.2286676E-1,3.0922717E-1,1.5839033E-1,-5.4005516E-1,8.234454E-1,5.264326E-1,-2.0205645E-1,4.689571E-1,9.10699E-1,3.8944375E-2,-6.1207676E-1,-2.686891E-1,7.852403E-2,-3.4887634E-2,9.4233435E-1,2.4050154E-1,2.306625E-1,-3.1336722E-1,4.8407707E-1,-3.415939E-1,4.6868205E-2,8.8003796E-1,6.749227E-1,9.493631E-2,4.684099E-1,-2.4008879E-1,6.809445E-1,-5.4859564E-2,1.0513644E0,1.7737034E-1,7.270832E-1,-2.0271139E-1,-6.2065095E-1,-1.0293593E-1,-4.135758E-1,2.4677448E-1,1.0031984E0,2.5329176E-1,-3.798227E-1,5.172176E-1,-3.6949003E-1,4.2205456E-1,4.5613017E-2,8.759366E-1,-2.7785236E-1,4.0193436E-1,2.0081361E-3,9.0190345E-1,7.772226E-1,2.5252795E-1,7.39238E-1,-2.287583E-2,7.6141375E-1,3.9117564E-2,-3.6938828E-1,-1.1984476E-1,1.01295225E-1,-4.2987892E-1,-2.8887108E-1,-6.3522613E-1,1.2667597E-3,-5.488788E-1,6.3551086E-1,-3.4180194E-1,8.3373404E-1,3.0486252E-2,1.13588385E-1,-4.180892E-1,-1.6568522E-1,7.3702496E-1,-3.5793638E-1,2.9318273E-1,9.441018E-1,3.9339465E-1,-1.2532319E-1,8.2109016E-1,4.7261797E-2,7.8301275E-1,-2.5832996E-1,4.198718E-1,1.5728475E-1,-3.96744E-1,1.3785887E-1,-2.6888388E-1,4.1006643E-1,-1.7836161E-1,-5.163777E-1,-9.023303E-2,-5.650426E-1,3.1386954E-1,-6.410566E-1,-5.4045647E-2,5.3694445E-1,-4.2909345E-1,-5.3707536E-2,-5.816858E-1,4.1941535E-2,8.2446307E-1,-3.1303325E-1,3.4025213E-1,5.0546914E-1,-3.7360963E-1,1.2798283E-1,-4.4798404E-1,6.468981E-1,-2.851497E-1,9.683706E-1,2.2042476E-1,-3.7371615E-1,6.808691E-1,8.650476E-1,1.5322138E-1,4.746497E-1,-2.539429E-1,1.5658483E-1,-4.4630483E-1,-9.845198E-2,6.9528145E-1,-1.9067577E-1,-4.7913373E-1,3.5891485E-1,-2.3108925E-1,4.496983E-1,-3.4226522E-1,-1.5076263E-1,-6.449482E-1,2.5511926E-2,7.7727956E-1,-6.039136E-1,-1.5185364E-1],"categories":[],"categories_nodes":[],"categories_segments":[],"categories_sizes":[],"default_left":[1,1,1,1,1,1,1,1,1,1,1,1,1,1,0,1,1,1,1,0,0,1,1,1,1,1,1,1,1,0,0,1,0,1,1,1,0,1,1,1,1,1,1,0,0,0,0,0,1,1,0,1,1,0,0,0,1,1,1,1,0,0,0,0,1,1,1,0,1,0,0,1,1,1,1,1,1,1,1,1,0,0,1,1,1,0,0,0,1,1,1,0,1,1,0,1,1,0,1,1,1,0,0,0,0,0,0,1,0,1,0,0,1,0,0,0,0,0,0,0,0,0,0,0,0,0,0,0,0,0,0,0,0,0,0,0,0,0,0,0,0,0,0,0,0,0,0],"id":5,"left_children":[1,3,5,7,9,11,13,15,17,19,21,23,25,27,-1,29,31,33,35,-1,-1,37,39,41,43,45,47,49,51,-1,-1,53,-1,55,57,59,-1,61,63,65,67,69,71,-1,-1,-1,-1,-1,73,75,-1,77,79,-1,-1,-1,81,83,85,87,-1,-1,-1,-1,89,91,93,-1,95,-1,-1,97,99,101,103,105,107,109,111,113,-1,-1,115,117,119,-1,-1,-1,121,123,125,-1,127,129,-1,131,133,-1,135,137,139,-1,-1,-1,-1,-1,-1,141,-1,143,-1,-1,145,-1,-1,-1,-1,-1,-1,-1,-1,-1,-1,-1,-1,-1,-1,-1,-1,-1,-1,-1,-1,-1,-1,-1,-1,-1,-1,-1,-1,-1,-1,-1,-1,-1,-1],"loss_changes":[5.5179096E1,1.6575161E1,1.1058897E1,7.193356E0,3.449871E0,4.409857E0,2.3125877E0,1.214293E0,2.4838266E0,5.303074E-1,2.0473557E0,1.8833065E0,2.6431065E0,2.0891914E0,0E0,1.2407842E-2,8.1624985E-2,2.0902913E0,1.3903323E0,0E0,0E0,2.1419754E0,4.087702E0,1.9358263E0,5.381002E-1,4.8835325E-1,1.5819051E0,3.763237E-1,1.993213E0,0E0,0E0,9.497404E-2,0E0,1.7280158E0,1.8651543E0,1.489001E0,0E0,6.225059E-1,8.86055E-1,1.8797665E0,1.3645109E0,4.9565864E-1,1.0180733E0,0E0,0E0,0E0,0E0,0E0,5.3845966E-1,2.9509735E-1,0E0,1.131139E0,1.6317121E0,0E0,0E0,0E0,9.577254E-1,9.6329784E-1,7.520762E-1,6.299086E-1,0E0,0E0,0E0,0E0,5.9679794E-1,1.6151638E0,1.1442912E0,0E0,1.7742207E0,0E0,0E0,5.2984524E-1,1.4537238E0,4.076737E-1,7.950741E-2,1.175916E0,2.8377914E-1,1.6022909E0,2.1550512E-1,4.2222202E-1,0E0,0E0,4.8454514E-1,1.0197481E0,6.394143E-1,0E0,0E0,0E0,9.6311957E-1,5.057144E-1,1.3949467E0,0E0,9.40712E-1,1.2644548E0,0E0,9.317581E-1,9.147372E-1,0E0,4.371009E-1,1.2391357E0,1.4040595E0,0E0,0E0,0E0,0E0,0E0,0E0,8.010483E-2,0E0,3.606239E-1,0E0,0E0,4.3423653E-2,0E0,0E0,0E0,0E0,0E0,0E0,0E0,0E0,0E0,0E0,0E0,0E0,0E0,0E0,0E0,0E0,0E0,0E0,0E0,0E0,0E0,0E0,0E0,0E0,0E0,0E0,0E0,0E0,0E0,0E0,0E0,0E0,0E0,0E0],"parents":[2147483647,0,0,1,1,2,2,3,3,4,4,5,5,6,6,7,7,8,8,9,9,10,10,11,11,12,12,13,13,15,15,16,16,17,17,18,18,21,21,22,22,23,23,24,24,25,25,26,26,27,27,28,28,31,31,33,33,34,34,35,35,37,37,38,38,39,39,40,40,41,41,42,42,48,48,49,49,51,51,52,52,56,56,57,57,58,58,59,59,64,64,65,65,66,66,68,68,71,71,72,72,73,73,74,74,75,75,76,76,77,77,78,78,79,79,82,82,83,83,84,84,88,88,89,89,90,90,92,92,93,93,95,95,96,96,98,98,99,99,100,100,107,107,109,109,112,112],"right_children":[2,4,6,8,10,12,14,16,18,20,22,24,26,28,-1,30,32,34,36,-1,-1,38,40,42,44,46,48,50,52,-1,-1,54,-1,56,58,60,-1,62,64,66,68,70,72,-1,-1,-1,-1,-1,74,76,-1,78,80,-1,-1,-1,82,84,86,88,-1,-1,-1,-1,90,92,94,-1,96,-1,-1,98,100,102,104,106,108,110,112,114,-1,-1,116,118,120,-1,-1,-1,122,124,126,-1,128,130,-1,132,134,-1,136,138,140,-1,-1,-1,-1,-1,-1,142,-1,144,-1,-1,146,-1,-1,-1,-1,-1,-1,-1,-1,-1,-1,-1,-1,-1,-1,-1,-1,-1,-1,-1,-1,-1,-1,-1,-1,-1,-1,-1,-1,-1,-1,-1,-1,-1,-1],"split_conditions":[2.5608754E-3,9.165431E-2,1.8900558E-1,1.7124841E-2,4.4514698E-1,1.0947052E2,9.963295E-2,9.4921817E-4,2.0516399E-1,1.5567156E3,1.9965743E-1,1.2104919E0,8.719845E-1,1.040054E-2,1.5648936E-1,2.9505815E-3,1.1643703E2,4.462905E-2,8.493074E-1,4.7517102E-2,-1.6201656E-1,6.670133E-1,1.9715089E3,4.4595376E-2,9.055226E-2,8.152784E0,3.2048364E0,1.9574274E3,5.5221826E-1,2.355721E-2,-1.0466291E-2,7.5679564E-1,7.215046E-2,8.0449225E2,8.0056915E1,6.707974E-4,-1.0247817E-1,4.1087214E-2,1.0308838E-3,1.3412704E1,3.7090403E-1,3.3388202E0,8.220619E-1,2.0428336E-1,-1.645787E-2,3.1540933E-1,5.3211104E-2,2.1812497E-1,5.0650556E-3,3.381331E-2,-3.088078E-2,6.5982506E-2,1.7705393E3,3.0095953E-1,7.598753E-2,-1.1394682E-1,8.643531E-1,3.3965964E0,1.2248435E0,8.650775E1,2.62781E-1,-8.335571E-2,1.2058031E-1,6.0244085E-4,4.707148E-1,-8.3295187E-16,1.6025759E3,2.2177142E-1,3.550922E0,2.2842413E-1,1.173527E-2,1.8620963E0,5.3611416E-3,4.0784473E0,9.087785E-1,2.9433227E-1,5.0409462E-2,1.6560059E3,1.7112631E-3,2.4016531E-2,-1.0254059E-1,2.5012022E-1,1.0511196E0,6.921829E-2,1.0280431E-1,-4.970557E-2,2.211075E-1,-1.0738092E-1,8.3823E0,2.7591438E3,4.8089474E-1,-3.759696E-2,1.3073138E2,1.7605335E-2,2.3490383E-1,2.5318338E-2,8.753433E1,4.718543E-2,1.1504402E1,1.8204995E3,9.7593576E-1,1.2301993E-1,-5.3508487E-2,-1.549133E-1,-2.706991E-2,-1.695128E-1,9.416086E-2,-1.7946067E-16,-1.6213695E-2,2.1647763E-1,-1.2872805E-1,-1.6112262E-2,1.0364285E-2,1.2582461E-2,2.4733894E-1,-9.390998E-2,1.02075644E-1,1.5164074E-1,-1.1208289E-1,3.839485E-2,-1.3439521E-1,1.9406943E-1,-8.5544914E-2,2.905112E-1,6.612743E-2,-1.1211485E-1,2.0426074E-1,2.5951427E-1,4.5966417E-2,1.4239492E-1,-7.618287E-2,4.6975452E-2,-1.3389145E-1,-2.9535595E-2,2.0858444E-1,-5.720273E-2,-1.4374012E-1,1.0767446E-1,-6.932678E-2,1.349095E-1,-1.0267957E-1,-4.522879E-2,-1.9348447E-1,7.653578E-3,2.3318388E-1,-1.8117408E-1,-4.555609E-2],"split_indices":[3,25,7,8,0,17,14,26,8,10,2,5,2,23,0,23,17,7,8,0,0,0,10,5,8,18,9,4,8,0,0,24,0,10,19,14,0,23,26,11,9,16,2,0,0,0,0,0,26,3,0,3,10,0,0,0,2,18,0,17,0,0,0,0,24,14,10,0,12,0,0,19,23,16,20,8,26,10,26,25,0,0,9,25,21,0,0,0,18,10,24,0,17,23,0,6,4,0,11,10,1,0,0,0,0,0,0,14,0,8,0,0,14,0,0,0,0,0,0,0,0,0,0,0,0,0,0,0,0,0,0,0,0,0,0,0,0,0,0,0,0,0,0,0,0,0,0],"split_type":[0,0,0,0,0,0,0,0,0,0,0,0,0,0,0,0,0,0,0,0,0,0,0,0,0,0,0,0,0,0,0,0,0,0,0,0,0,0,0,0,0,0,0,0,0,0,0,0,0,0,0,0,0,0,0,0,0,0,0,0,0,0,0,0,0,0,0,0,0,0,0,0,0,0,0,0,0,0,0,0,0,0,0,0,0,0,0,0,0,0,0,0,0,0,0,0,0,0,0,0,0,0,0,0,0,0,0,0,0,0,0,0,0,0,0,0,0,0,0,0,0,0,0,0,0,0,0,0,0,0,0,0,0,0,0,0,0,0,0,0,0,0,0,0,0,0,0],"sum_hessian":[3.9664963E2,1.8399347E2,2.1265614E2,6.833882E1,1.15654655E2,8.718417E1,1.2547197E2,1.0407909E1,5.7930912E1,3.1801515E0,1.124745E2,7.401571E1,1.316846E1,1.2416093E2,1.311043E0,2.0670757E0,8.340834E0,4.8166252E1,9.764657E0,1.1168226E0,2.0633287E0,4.8676846E1,6.3797653E1,7.050623E1,3.5094783E0,5.5420017E0,7.626458E0,9.98388E1,2.4322128E1,1.0562487E0,1.0108271E0,7.3236322E0,1.0172015E0,7.754918E0,4.0411335E1,7.898774E0,1.8658829E0,3.4305248E0,4.5246323E1,4.7044247E1,1.6753408E1,3.1773374E0,6.7328896E1,2.284841E0,1.2246373E0,4.2861533E0,1.255848E0,1.4600538E0,6.1664047E0,9.796992E1,1.8688831E0,1.913993E1,5.182197E0,6.3103037E0,1.0133283E0,2.3732977E0,5.3816204E0,3.8008354E1,2.4029808E0,4.2545853E0,3.6441886E0,1.9054167E0,1.525108E0,1.125917E0,4.4120403E1,3.719576E1,9.848486E0,1.7744449E0,1.4978964E1,1.428618E0,1.7487195E0,3.144443E1,3.5884468E1,2.8741596E0,3.292245E0,4.9988437E0,9.297107E1,4.95092E0,1.4189011E1,3.0728998E0,2.109297E0,2.8290157E0,2.5526047E0,3.3520043E0,3.465635E1,1.0038139E0,1.3991668E0,1.4481834E0,2.806402E0,3.9948673E1,4.171732E0,1.6380064E0,3.5557755E1,7.8861175E0,1.9623684E0,1.0050576E1,4.9283876E0,1.3180825E0,3.0126347E1,1.3176312E1,2.2708155E1,1.144352E0,1.7298076E0,2.2092633E0,1.0829817E0,3.4710002E0,1.5278436E0,9.194564E1,1.0254338E0,2.0952537E0,2.8556662E0,1.0455225E0,1.3143489E1,1.0370641E0,2.0358357E0,1.2053576E0,1.3472471E0,1.8369443E0,1.51506E0,1.6284931E0,3.302786E1,1.6677982E0,1.1386039E0,3.8325294E1,1.6233779E0,1.0554147E0,3.1163173E0,3.308495E1,2.472804E0,3.022115E0,4.8640027E0,3.1857333E0,6.864843E0,1.9329956E0,2.9953923E0,9.551365E0,2.0574982E1,8.256568E0,4.9197445E0,1.6289108E0,2.1079245E1,1.0369928E0,9.0908646E1,1.0234678E0,1.071786E0,1.2112138E1,1.0313505E0],"tree_param":{"num_deleted":"0","num_feature":"27","num_nodes":"147","size_leaf_vector":"0"}},{"base_weights":[-1.1118563E-2,-2.6789045E-1,5.4406255E-1,-4.7232506E-1,-4.994236E-2,-2.5825402E-1,6.7379546E-1,-5.590978E-1,-4.9177527E-2,-4.0751806E-1,1.4519404E-1,3.852955E-1,-5.40554E-1,7.035855E-1,-2.6107973E-1,-2.6531962E-1,-5.879338E-1,3.7249568E-1,-5.7325435E-1,-5.0651103E-1,4.3012005E-1,3.5166E-1,-3.1559443E-1,6.937445E-1,-2.6576313E-1,-5.972066E-1,2.5438419E-2,7.271671E-1,-4.3038404E-1,-4.7311798E-1,1.6679065E-1,-5.1225674E-1,4.2284232E-1,-6.3297E-1,-4.3231452E-1,6.220457E-1,-4.8046377E-1,-5.921786E-1,-3.110056E-1,7.288917E-1,-2.2079247E-1,4.4516096E-1,-3.9494213E-1,1.741043E-1,-5.15971E-1,-3.3727798E-1,7.4260694E-1,-5.458653E-1,-1.333334E-1,3.8455833E-2,5.626006E-1,-5.583702E-1,3.8568407E-2,7.543785E-1,-3.1117797E-1,-1.0544427E-1,-6.3100684E-1,-4.0629545E-1,4.3754482E-1,5.5101913E-1,-2.7492058E-1,2.1649826E-1,-5.57651E-1,4.8619086E-1,-4.7782716E-1,-5.8091074E-1,-1.1160211E-1,3.292785E-2,7.678808E-1,-5.834707E-1,-1.6914068E-1,4.7426054E-1,-4.4994906E-1,1.3599183E-1,8.13266E-1,-3.5592234E-1,2.1539189E-1,-5.123704E-1,1.592927E-1,-3.449897E-1,6.294851E-1,5.068971E-1,-5.122413E-1,-1.3776015E-1,6.845552E-1,-1.6787937E-1,-6.028006E-1,-4.8150277E-1,4.3508843E-1,5.829988E-1,-5.489382E-1,7.7847636E-1,-6.500022E-2,-6.024171E-1,-1.3120298E-1,-4.997806E-2,7.444203E-1,-5.9009916E-1,8.6431265E-2,1.0718313E-1,-5.2202755E-1,-4.80022E-1,6.8013585E-1,-1.3179326E-1,-5.639049E-1,7.900339E-1,2.4132258E-1],"categories":[],"categories_nodes":[],"categories_segments":[],"categories_sizes":[],"default_left":[1,1,1,1,1,1,1,1,1,1,1,1,1,1,1,1,1,1,0,1,1,1,1,0,0,0,0,1,0,0,0,1,1,0,1,1,0,1,1,0,0,1,1,1,1,0,1,0,0,0,0,1,1,1,0,1,0,1,0,1,1,0,0,1,0,1,1,1,1,1,0,1,0,0,0,0,0,1,0,1,1,0,1,0,0,0,0,0,0,0,0,1,0,0,0,0,0,0,0,0,0,0,0,0,0,0,0],"id":6,"left_children":[1,3,5,7,9,11,13,15,17,19,21,23,25,27,29,31,33,35,-1,37,39,41,43,-1,-1,-1,-1,45,-1,-1,-1,47,49,-1,51,53,-1,55,57,-1,-1,59,61,63,65,-1,67,-1,-1,-1,-1,69,71,73,-1,75,-1,77,-1,79,81,-1,-1,83,-1,85,87,89,91,93,-1,95,-1,-1,-1,-1,-1,97,-1,99,101,-1,103,-1,-1,-1,-1,-1,-1,-1,-1,105,-1,-1,-1,-1,-1,-1,-1,-1,-1,-1,-1,-1,-1,-1,-1],"loss_changes":[5.2353996E1,1.1163801E1,1.2263416E1,4.725277E0,8.616804E0,3.2766702E0,2.9758644E0,7.531395E-1,5.323536E0,3.830081E0,7.729732E0,1.3357904E0,4.0497184E-1,2.9183807E0,4.2597386E-1,2.1563334E0,4.054985E-1,3.1553268E0,0E0,4.7601604E-1,1.1614895E0,4.069378E0,2.5730033E0,0E0,0E0,0E0,0E0,1.8252335E0,0E0,0E0,0E0,3.9955854E-2,1.6972798E-1,0E0,1.4997692E0,1.5707202E0,0E0,4.30542E-1,1.1846453E0,0E0,0E0,3.9656954E0,7.910241E-1,1.8795E0,4.133706E-1,0E0,1.6743889E0,0E0,0E0,0E0,0E0,9.387112E-2,1.5318197E0,2.4505186E-1,0E0,3.293057E-1,0E0,8.639684E-1,0E0,3.3076477E0,1.5733503E0,0E0,0E0,8.3328784E-1,0E0,3.8514137E-2,9.6937245E-1,1.6974425E0,8.577118E-1,7.61199E-2,0E0,5.698757E-1,0E0,0E0,0E0,0E0,0E0,5.731375E-1,0E0,3.9100778E-1,2.6177616E0,0E0,4.221654E-2,0E0,0E0,0E0,0E0,0E0,0E0,0E0,0E0,3.7047195E-1,0E0,0E0,0E0,0E0,0E0,0E0,0E0,0E0,0E0,0E0,0E0,0E0,0E0,0E0,0E0],"parents":[2147483647,0,0,1,1,2,2,3,3,4,4,5,5,6,6,7,7,8,8,9,9,10,10,11,11,12,12,13,13,14,14,15,15,16,16,17,17,19,19,20,20,21,21,22,22,27,27,31,31,32,32,34,34,35,35,37,37,38,38,41,41,42,42,43,43,44,44,46,46,51,51,52,52,53,53,55,55,57,57,59,59,60,60,63,63,65,65,66,66,67,67,68,68,69,69,71,71,77,77,79,79,80,80,82,82,91,91],"right_children":[2,4,6,8,10,12,14,16,18,20,22,24,26,28,30,32,34,36,-1,38,40,42,44,-1,-1,-1,-1,46,-1,-1,-1,48,50,-1,52,54,-1,56,58,-1,-1,60,62,64,66,-1,68,-1,-1,-1,-1,70,72,74,-1,76,-1,78,-1,80,82,-1,-1,84,-1,86,88,90,92,94,-1,96,-1,-1,-1,-1,-1,98,-1,100,102,-1,104,-1,-1,-1,-1,-1,-1,-1,-1,106,-1,-1,-1,-1,-1,-1,-1,-1,-1,-1,-1,-1,-1,-1,-1],"split_conditions":[4.7579855E-1,2.979319E-3,1.0362753E-1,2.3138728E3,3.917501E-2,1.7134544E1,1.7252588E0,3.332604E-3,5.2024433E-3,2.360284E3,9.974693E-1,3.0568886E-1,1.1827873E1,9.4828355E-1,7.393313E-1,2.1543418E3,1.4288539E-1,1.1598911E0,-1.7197631E-1,1.4541815E-1,5.4405874E-1,1.2874493E1,1.0130531E2,2.0812336E-1,-7.9728946E-2,-1.7916198E-1,7.631526E-3,1.4183462E0,-1.2911522E-1,-1.419354E-1,5.0037198E-2,9.09925E-1,2.2563834E-3,-1.89891E-1,9.0368286E1,1.9964875E0,-1.4413914E-1,7.104428E-1,5.5417085E-1,2.186675E-1,-6.623775E-2,1.373708E0,9.2383254E-1,3.9634262E1,1.1366042E0,-1.011834E-1,3.6798192E-5,-1.6375959E-1,-4.000002E-2,1.153675E-2,1.687802E-1,5.4196386E0,1.970113E-1,7.657221E-4,-9.335339E-2,1.0957192E-1,-1.8930206E-1,7.058545E-1,1.3126345E-1,1.2920687E-1,6.0428333E-1,6.494948E-2,-1.672953E-1,1.0676972E-2,-1.4334816E-1,1.7764966E2,1.3501126E-1,6.4125244E1,9.125664E0,2.730514E-3,-5.0742205E-2,1.2787546E1,-1.3498472E-1,4.079755E-2,2.439798E-1,-1.0677671E-1,6.461757E-2,3.228078E-2,4.778781E-2,4.0271315E-3,2.908355E2,1.5206914E-1,7.143664E-2,-4.1328046E-2,2.0536657E-1,-5.0363813E-2,-1.808402E-1,-1.4445084E-1,1.3052653E-1,1.7489965E-1,-1.6468146E-1,1.3364796E-2,-1.9500067E-2,-1.8072514E-1,-3.9360896E-2,-1.4993418E-2,2.233261E-1,-1.7702976E-1,2.592938E-2,3.215494E-2,-1.5660827E-1,-1.4400661E-1,2.0404077E-1,-3.953798E-2,-1.6917147E-1,2.3701017E-1,7.239678E-2],"split_indices":[7,3,3,10,7,9,5,25,23,10,2,8,13,3,2,10,21,5,0,21,3,12,4,0,0,0,0,16,0,0,0,24,23,0,15,13,0,2,5,0,0,5,1,15,5,0,14,0,0,0,0,18,25,25,0,6,0,24,0,24,1,0,0,23,0,4,21,4,18,14,0,11,0,0,0,0,0,7,0,23,10,0,8,0,0,0,0,0,0,0,0,23,0,0,0,0,0,0,0,0,0,0,0,0,0,0,0],"split_type":[0,0,0,0,0,0,0,0,0,0,0,0,0,0,0,0,0,0,0,0,0,0,0,0,0,0,0,0,0,0,0,0,0,0,0,0,0,0,0,0,0,0,0,0,0,0,0,0,0,0,0,0,0,0,0,0,0,0,0,0,0,0,0,0,0,0,0,0,0,0,0,0,0,0,0,0,0,0,0,0,0,0,0,0,0,0,0,0,0,0,0,0,0,0,0,0,0,0,0,0,0,0,0,0,0,0,0],"sum_hessian":[3.6523254E2,2.500853E2,1.15147255E2,1.2844095E2,1.2164434E2,1.5889577E1,9.925768E1,1.06317635E2,2.212331E1,4.2562588E1,7.908176E1,4.7336326E0,1.1155944E1,9.643224E1,2.8254354E0,1.0414692E1,9.590295E1,1.2419662E1,9.703649E0,3.841766E1,4.144928E0,5.477534E1,2.4306416E1,3.167444E0,1.5661885E0,1.0090766E1,1.0651777E0,9.481916E1,1.6130857E0,1.8184979E0,1.0069375E0,7.852537E0,2.562155E0,7.199902E1,2.3903923E1,9.817949E0,2.6017132E0,2.5301815E1,1.3115843E1,2.7588186E0,1.3861092E0,4.9037827E1,5.7375154E0,7.0959044E0,1.7210512E1,1.0576563E0,9.3761505E1,6.8081217E0,1.0444152E0,1.0231838E0,1.5389712E0,1.8709566E1,5.1943564E0,8.766488E0,1.051461E0,2.1437943E0,2.3158022E1,1.2040341E1,1.0755019E0,4.295749E1,6.0803375E0,1.1364154E0,4.6011E0,4.9706373E0,2.1252673E0,1.4452863E1,2.7576492E0,3.3035033E0,9.0458E1,1.7107313E1,1.6022531E0,2.7610521E0,2.4333045E0,1.0499674E0,7.716521E0,1.1424896E0,1.0013047E0,1.0218058E1,1.8222834E0,3.1854846E0,3.9772003E1,1.1513779E0,4.9289594E0,1.2727494E0,3.697888E0,1.1637516E0,1.3289111E1,1.7158886E0,1.0417604E0,1.6971473E0,1.6063561E0,8.9386185E1,1.0718147E0,1.6100824E1,1.0064889E0,1.2161492E0,1.5449029E0,9.056935E0,1.1611218E0,1.0073036E0,2.1781812E0,1.36629E0,3.8405712E1,1.0138687E0,3.9150906E0,8.704259E1,2.3436027E0],"tree_param":{"num_deleted":"0","num_feature":"27","num_nodes":"107","size_leaf_vector":"0"}},{"base_weights":[5.8393117E-2,1.4059179E-1,-2.5240678E-1,3.26367E-2,4.645415E-1,3.6128297E-1,-4.129066E-1,-3.786272E-2,4.1562217E-1,1.17456704E-1,5.478199E-1,-2.1267493E-1,5.8157307E-1,5.0816417E-1,-4.69538E-1,3.76739E-1,-9.1426395E-2,2.6259517E-2,4.9542582E-1,3.3775008E-1,-3.83917E-1,6.051917E-1,2.1742763E-1,4.9007943E-1,-4.9844006E-1,7.243132E-1,-2.573425E-1,-3.53147E-1,9.098471E-1,-5.1215947E-1,4.5215484E-1,4.809443E-1,-3.5519645E-1,1.0887211E-1,-1.9295274E-1,-3.1060585E-1,4.328551E-1,5.314695E-1,-1.9088593E-1,5.492305E-1,-9.777163E-2,-5.284598E-1,1.663213E-2,7.074389E-1,3.3384803E-1,-1.05037294E-1,6.011655E-1,2.929855E-1,8.482592E-1,-5.351452E-1,1.5795238E-1,1.4299656E-1,5.685252E-1,-1.2925996E-1,6.164214E-1,-4.3324846E-1,-8.610397E-2,-9.6701E-2,3.2921252E-1,8.0610645E-1,-2.2550519E-1,-5.240897E-1,2.1156475E-1,5.618588E-1,1.1383997E-1,5.756508E-1,-1.9554748E-1,7.69382E-1,-1.2006684E-1,5.791958E-1,-5.2306473E-1,2.7053094E-1,7.503042E-1,-1.0889894E-1,5.364877E-1,-4.6080792E-1,3.9411488E-1,7.561964E-1,8.4373E-2,6.2908405E-1,-3.589631E-1,2.190207E-1,-5.537457E-1,3.0841777E-1,-4.6199593E-1,6.8895E-1,-1.418695E-1,-5.5819595E-1,6.79542E-2,4.7117937E-1,-1.5668958E-1,-1.5136279E-1,-4.8501295E-1,-3.1035459E-2,6.2288857E-1,5.3404E-1,-4.2245343E-2,7.7594393E-1,4.8944797E-2,3.3565512E-1,-4.6078357E-1,6.1355513E-1,-2.2684417E-3,-5.4523444E-1,-9.1129385E-2,5.18047E-1,1.0824838E-1,-5.7197577E-1,2.0582917E-1,-9.468121E-3,7.725567E-1,-6.124423E-1,-8.40729E-2,3.4348267E-1,-1.8550906E-1,-3.8047105E-1,5.37805E-1,-3.575695E-1,5.15213E-1,-2.1391016E-1,7.499265E-1,-5.672363E-1,5.1459245E-2,6.7899853E-1,1.1347622E-1,1.707497E-1,-2.2554831E-1,1.2580314E-1,7.939854E-1,4.2899454E-1,8.682719E-2,-1.2033451E-1,-5.4755306E-1,6.6468614E-1,1.93822E-1,-5.4020382E-2,-5.8072543E-1],"categories":[],"categories_nodes":[],"categories_segments":[],"categories_sizes":[],"default_left":[1,1,1,1,1,1,1,1,1,1,1,1,1,1,1,1,1,1,1,1,1,1,1,0,0,1,0,0,0,1,1,1,1,1,1,1,1,1,0,1,1,0,0,1,1,1,1,1,0,1,0,0,0,1,1,0,0,1,1,0,1,0,0,0,0,1,0,0,0,0,0,1,1,1,1,1,1,0,0,0,0,0,1,0,0,1,0,1,1,1,1,1,1,0,1,0,1,1,0,1,1,1,0,0,0,0,0,1,0,0,0,0,0,0,0,0,0,0,0,0,0,0,0,0,0,0,0,0,0,0,0,0,0,0,0,0,0],"id":7,"left_children":[1,3,5,7,9,11,13,15,17,19,21,23,25,27,29,31,33,35,37,39,41,43,45,-1,-1,47,-1,-1,-1,49,51,53,55,57,59,61,63,65,-1,67,69,-1,-1,71,73,75,77,79,-1,81,-1,-1,-1,83,85,-1,-1,87,89,-1,91,-1,-1,-1,-1,93,-1,-1,-1,-1,-1,95,97,99,101,103,105,-1,-1,-1,-1,-1,107,-1,-1,109,-1,111,113,115,117,119,121,-1,123,-1,125,127,-1,129,131,133,-1,-1,-1,-1,-1,135,-1,-1,-1,-1,-1,-1,-1,-1,-1,-1,-1,-1,-1,-1,-1,-1,-1,-1,-1,-1,-1,-1,-1,-1,-1,-1,-1,-1,-1],"loss_changes":[9.83476E0,1.0615919E1,8.086568E0,6.200996E0,2.1297112E0,2.3034253E0,3.5949526E0,4.3512597E0,1.0961833E0,1.8925943E0,1.0236435E0,1.351567E0,1.7102857E0,1.7769324E0,2.633316E0,1.8819976E0,3.538035E0,1.1107394E0,8.329034E-1,1.1240506E0,3.17976E-1,1.1889629E0,1.3720746E0,0E0,0E0,3.4690523E-1,0E0,0E0,0E0,9.918375E-1,3.50281E-2,1.7383428E0,3.3502012E-2,2.6959312E0,3.926159E0,6.103344E-1,8.6146E-2,1.0234356E0,0E0,1.2672765E0,1.6409804E0,0E0,0E0,4.7901154E-1,1.489625E0,1.353504E0,3.3509254E-1,1.105304E0,0E0,9.233818E-1,0E0,0E0,0E0,7.937395E-1,1.0102673E0,0E0,0E0,2.4087558E0,2.0477498E0,0E0,2.0869641E0,0E0,0E0,0E0,0E0,7.9273224E-1,0E0,0E0,0E0,0E0,0E0,4.1960618E-1,5.4821205E-1,1.0682211E0,4.627781E-1,8.4953606E-2,6.0309708E-2,0E0,0E0,0E0,0E0,0E0,8.943596E-1,0E0,0E0,9.015579E-1,0E0,1.6231775E-1,1.7319072E0,1.4753203E0,1.1587956E0,5.165537E0,1.1097813E0,0E0,6.399498E-1,0E0,1.6069473E-1,2.681942E-1,0E0,3.6115855E-2,4.2854905E-2,7.988763E-2,0E0,0E0,0E0,0E0,0E0,2.1805E-1,0E0,0E0,0E0,0E0,0E0,0E0,0E0,0E0,0E0,0E0,0E0,0E0,0E0,0E0,0E0,0E0,0E0,0E0,0E0,0E0,0E0,0E0,0E0,0E0,0E0,0E0,0E0,0E0,0E0],"parents":[2147483647,0,0,1,1,2,2,3,3,4,4,5,5,6,6,7,7,8,8,9,9,10,10,11,11,12,12,13,13,14,14,15,15,16,16,17,17,18,18,19,19,20,20,21,21,22,22,25,25,29,29,30,30,31,31,32,32,33,33,34,34,35,35,36,36,37,37,39,39,40,40,43,43,44,44,45,45,46,46,47,47,49,49,53,53,54,54,57,57,58,58,60,60,65,65,71,71,72,72,73,73,74,74,75,75,76,76,82,82,85,85,87,87,88,88,89,89,90,90,91,91,92,92,94,94,96,96,97,97,99,99,100,100,101,101,107,107],"right_children":[2,4,6,8,10,12,14,16,18,20,22,24,26,28,30,32,34,36,38,40,42,44,46,-1,-1,48,-1,-1,-1,50,52,54,56,58,60,62,64,66,-1,68,70,-1,-1,72,74,76,78,80,-1,82,-1,-1,-1,84,86,-1,-1,88,90,-1,92,-1,-1,-1,-1,94,-1,-1,-1,-1,-1,96,98,100,102,104,106,-1,-1,-1,-1,-1,108,-1,-1,110,-1,112,114,116,118,120,122,-1,124,-1,126,128,-1,130,132,134,-1,-1,-1,-1,-1,136,-1,-1,-1,-1,-1,-1,-1,-1,-1,-1,-1,-1,-1,-1,-1,-1,-1,-1,-1,-1,-1,-1,-1,-1,-1,-1,-1,-1,-1],"split_conditions":[4.571401E-1,9.855194E-1,7.110145E-3,7.7862873E0,9.8912674E1,2.358257E0,3.6817328E-5,5.982938E0,2.6798922E-1,6.562901E1,8.2754385E-1,2.139629E0,4.9618012E-1,3.2288688E-3,1.426479E3,1.006875E1,6.8386483E-1,4.112774E-1,6.700272E1,1.8879165E3,3.4801993E0,1.4161903E-1,9.2019904E-1,1.4702384E-1,-1.4953202E-1,1.6394252E-4,-7.720275E-2,-1.05944104E-1,2.7295414E-1,2.9662482E-2,2.068578E-2,2.7980389E1,1.190655E1,9.999946E-1,3.009935E-9,2.056805E-2,7.586958E-1,2.1405452E3,-5.726578E-2,8.969309E1,4.8724312E-1,-1.5853794E-1,4.9896394E-3,-3.96818E-17,8.118695E-3,4.8332892E-2,7.942051E1,3.6555444E-4,2.5447777E-1,9.664956E-2,4.738572E-2,4.289897E-2,1.7055756E-1,3.0705827E-1,3.526551E-1,-1.2997454E-1,-2.583119E-2,4.0133328E2,2.168079E3,2.4183194E-1,4.2562583E-4,-1.5722692E-1,6.3469425E-2,1.6855764E-1,3.4151994E-2,1.2859786E0,-5.8664244E-2,2.308146E-1,-3.602005E-2,1.7375875E-1,-1.5691942E-1,3.8396575E-2,1.9522601E2,7.7400525E2,7.7303815E-1,1.7966543E3,8.248601E-1,2.2685893E-1,2.53119E-2,1.8872522E-1,-1.0768893E-1,6.570621E-2,1.7102901E0,9.252533E-2,-1.3859878E-1,1.6929812E0,-4.2560853E-2,3.9001274E0,8.157931E-2,4.8966052E2,2.6075293E3,3.7696297E1,1.6039078E0,-9.310638E-3,1.8245333E-1,1.60212E-1,3.083109E2,8.173638E2,1.4683439E-2,7.951453E-3,1.4396244E-1,2.7309945E-1,-6.8053254E-4,-1.6357034E-1,-2.7338816E-2,1.554141E-1,3.2474518E-2,5.919118E2,6.1748754E-2,-2.8404365E-3,2.3176703E-1,-1.837327E-1,-2.5221871E-2,1.0304481E-1,-5.565272E-2,-1.1414132E-1,1.6134152E-1,-1.0727085E-1,1.545639E-1,-6.417305E-2,2.2497796E-1,-1.701709E-1,1.5437774E-2,2.0369957E-1,3.4042865E-2,5.122491E-2,-6.76645E-2,3.7740946E-2,2.3819564E-1,1.2869836E-1,2.6048157E-2,-3.6100354E-2,-1.6426593E-1,1.9940585E-1,5.81466E-2,-1.6206115E-2,-1.7421764E-1],"split_indices":[6,2,25,18,4,16,14,15,24,4,0,18,0,26,4,12,5,25,19,10,13,21,0,0,0,23,0,0,0,23,26,19,11,1,23,14,5,10,0,15,5,0,0,14,23,8,15,25,0,21,0,0,0,20,6,0,0,4,10,0,14,0,0,0,0,22,0,0,0,0,0,8,15,4,0,10,5,0,0,0,0,0,5,0,0,12,0,13,25,10,10,19,5,0,25,0,4,10,0,25,21,7,0,0,0,0,0,10,0,0,0,0,0,0,0,0,0,0,0,0,0,0,0,0,0,0,0,0,0,0,0,0,0,0,0,0,0],"split_type":[0,0,0,0,0,0,0,0,0,0,0,0,0,0,0,0,0,0,0,0,0,0,0,0,0,0,0,0,0,0,0,0,0,0,0,0,0,0,0,0,0,0,0,0,0,0,0,0,0,0,0,0,0,0,0,0,0,0,0,0,0,0,0,0,0,0,0,0,0,0,0,0,0,0,0,0,0,0,0,0,0,0,0,0,0,0,0,0,0,0,0,0,0,0,0,0,0,0,0,0,0,0,0,0,0,0,0,0,0,0,0,0,0,0,0,0,0,0,0,0,0,0,0,0,0,0,0,0,0,0,0,0,0,0,0,0,0],"sum_hessian":[3.8257318E2,3.0298816E2,7.958503E1,2.2808154E2,7.490662E1,1.6239693E1,6.3345337E1,1.933847E2,3.4696842E1,1.496141E1,5.994521E1,4.5137777E0,1.1725915E1,3.2073183E0,6.0138016E1,2.1435202E1,1.719495E2,6.127886E0,2.8568954E1,1.0621077E1,4.3403335E0,5.0367313E1,9.577895E0,1.0981735E0,3.415604E0,1.0137623E1,1.5882922E0,1.0584855E0,2.148833E0,5.7904682E1,2.2333357E0,1.9063986E1,2.3712168E0,5.781518E1,1.14134315E2,3.4804263E0,2.6474595E0,2.7357794E1,1.2111601E0,6.973702E0,3.6473742E0,2.9547422E0,1.3855911E0,3.5415104E1,1.4952212E1,5.5991015E0,3.978793E0,3.0137382E0,7.1238847E0,5.6179073E1,1.7256086E0,1.2202728E0,1.013063E0,3.4719267E0,1.5592059E1,1.3651971E0,1.0060198E0,3.0200167E1,2.7615013E1,2.851652E0,1.1128267E2,2.4678123E0,1.0126139E0,1.3431045E0,1.304355E0,2.5986763E1,1.3710307E0,5.1350856E0,1.8386165E0,1.2676681E0,2.3797061E0,3.8173804E0,3.1597723E1,4.83997E0,1.0112243E1,3.3139226E0,2.2851791E0,2.7042913E0,1.2745016E0,2.0117128E0,1.0020256E0,1.0928748E0,5.5086197E1,1.5310645E0,1.940862E0,1.4314369E1,1.2776892E0,7.3130608E0,2.2887106E1,2.1394457E1,6.2205563E0,8.7785324E1,2.3497345E1,1.901993E0,2.408477E1,1.6879181E0,2.1294625E0,3.0380745E1,1.2169771E0,2.1587858E0,2.6811843E0,8.725281E0,1.3869617E0,2.3112059E0,1.002717E0,1.0275186E0,1.2576604E0,5.4036285E1,1.0499127E0,1.6251605E0,1.2689209E1,6.3004613E0,1.0125992E0,1.079605E1,1.2091056E1,1.2105011E0,2.0183956E1,5.1489816E0,1.0715747E0,8.2801735E1,4.983585E0,2.0324871E1,3.172473E0,2.1395254E1,2.6895175E0,1.0166341E0,1.1128283E0,1.035584E0,2.9345161E1,1.0433482E0,1.1154377E0,1.0293305E0,1.6518538E0,7.257584E0,1.4676965E0,1.0168308E0,5.3019455E1],"tree_param":{"num_deleted":"0","num_feature":"27","num_nodes":"137","size_leaf_vector":"0"}},{"base_weights":[6.4951833E-3,3.0921006E-1,-2.7144325E-1,-5.726858E-2,5.18266E-1,-3.8006487E-1,2.1648367E-1,4.5958862E-1,-1.6153486E-1,6.1037403E-1,1.6470209E-1,-7.051251E-2,-4.4983035E-1,8.276846E-2,5.1493233E-1,-1.6248023E-2,5.930914E-1,-2.3913032E-1,2.1776168E-1,-9.895763E-2,6.552702E-1,-2.2845124E-1,2.58565E-1,5.194348E-1,-1.9960237E-1,-5.2851915E-1,-2.7011442E-1,-1.7363084E-2,7.26751E-1,8.770602E-1,-2.7631135E-3,3.1793693E-1,-3.357021E-1,-1.4830558E-1,7.401395E-1,2.4257202E-1,-2.8171116E-1,3.827143E-1,-1.0990011E-1,-3.4983605E-1,5.167806E-1,-1.9398384E-1,6.772126E-1,-4.436521E-1,2.813609E-1,3.8579962E-1,-1.6409998E-1,1.7141806E-1,8.352615E-1,3.5674185E-1,-2.6798424E-1,-5.864648E-1,-3.5594448E-1,3.4286971E-3,-3.9698285E-1,2.3088413E-1,-2.3489793E-1,2.2330748E-1,9.563094E-1,-2.6590154E-1,3.025729E-1,1.399915E-1,8.1113297E-1,5.8222836E-1,-1.3961682E-1,2.4899742E-1,-3.174628E-1,7.561965E-1,1.3468483E-1,-4.0786624E-1,3.99025E-1,-5.033902E-1,8.552913E-2,7.014883E-1,-7.378414E-2,-1.4074785E-1,-5.0595516E-1,5.550765E-1,-3.5017543E-3,-4.957651E-1,2.039282E-1,4.99564E-1,-1.4480692E-1,-6.3191764E-2,6.328126E-1,-3.4272695E-1,2.3456362E-1,2.1434054E-2,-5.96675E-1,5.6208485E-1,-4.371366E-1,-1.4682014E-1,4.2817152E-1,6.4564585E-3,-5.0205445E-1,5.8271086E-1,6.495603E-2,-3.5621336E-1,3.5450786E-1,-4.050807E-1,-2.6171647E-2,7.740798E-2,3.7546018E-1,6.565061E-1,-2.8185517E-1,-3.451879E-1,2.6723412E-1,3.876017E-1,-1.797727E-1,9.972034E-2,7.302135E-1,2.3395574E-1,-2.9048458E-1,-8.8165335E-2,6.554559E-1,-2.6367024E-1,5.4995E-1,5.430808E-1,-2.4720126E-1,-3.7586793E-1,1.524241E-1,-1.1026397E-1,4.2756492E-1,-1.3050821E-1,-6.043495E-1,-7.433733E-2,-5.2079177E-1,-2.70612E-1,1.4685316E-1,-7.914636E-2,6.310084E-1,4.4583055E-1,-1.5435676E-1,-5.601035E-1,-2.9803602E-2,7.5988925E-1,7.7806465E-2,-1.3195194E-1,4.494053E-1,2.8861654E-1,-4.480651E-1,-1.3747871E-1,-4.291946E-1,9.306088E-3,5.7042354E-1,-4.0912535E-2,-2.2815318E-1,5.742045E-1,-3.6862317E-1,6.485942E-3,7.418973E-1,7.710859E-2,7.3391813E-1,1.2326111E-1,-4.4227162E-1,-4.6381992E-1,-1.5218991E-1,-1.18220985E-1,-6.1025727E-1,3.6850724E-1,-3.7071353E-1,-5.516721E-1,1.7868917E-2,-3.4783915E-1,1.2521438E-1,7.1604204E-1,-3.1244028E-1,-2.8236228E-1,2.2128235E-1,-5.8590287E-1,-4.937249E-2,-3.876121E-1,3.878163E-1,2.825069E-1,-3.0864048E-1,6.369593E-1,3.9693974E-2,-5.154365E-2,-5.469101E-1],"categories":[],"categories_nodes":[],"categories_segments":[],"categories_sizes":[],"default_left":[1,1,1,1,1,1,1,1,1,1,1,1,1,1,1,1,1,1,1,1,1,1,1,1,1,1,1,1,0,1,1,0,0,0,1,1,1,1,1,1,0,0,1,1,0,1,1,1,0,1,1,1,1,1,1,1,1,0,0,1,1,0,0,0,0,1,1,0,1,0,0,0,0,1,1,0,0,1,1,0,1,0,0,0,0,1,1,0,1,0,1,1,1,1,1,1,1,1,0,0,0,0,0,0,0,1,0,1,1,1,1,0,0,0,1,1,0,0,0,1,0,0,0,0,1,1,1,1,1,0,0,0,1,1,1,0,0,1,1,0,1,0,0,0,0,0,0,0,0,0,0,0,0,0,0,0,0,0,0,0,0,0,0,0,0,0,0,0,0,0,0,0,0,0,0,0,0,0,0],"id":8,"left_children":[1,3,5,7,9,11,13,15,17,19,21,23,25,27,29,31,33,35,37,39,41,43,45,47,49,51,53,55,-1,57,59,-1,-1,-1,61,63,65,67,69,71,-1,-1,73,75,-1,77,79,81,-1,83,85,87,89,91,93,95,97,-1,-1,99,101,-1,-1,-1,-1,103,105,-1,107,-1,-1,-1,-1,109,111,-1,-1,113,115,-1,117,-1,-1,-1,-1,119,121,-1,123,-1,125,127,129,131,133,135,137,139,-1,-1,-1,-1,-1,-1,-1,141,-1,143,145,147,149,-1,-1,-1,151,153,-1,-1,-1,155,-1,-1,-1,-1,157,159,161,163,165,-1,-1,-1,167,169,171,-1,-1,173,175,-1,177,-1,-1,-1,-1,-1,-1,-1,-1,-1,-1,-1,-1,-1,-1,-1,-1,-1,-1,-1,-1,-1,-1,-1,-1,-1,-1,-1,-1,-1,-1,-1,-1,-1,-1,-1,-1,-1,-1],"loss_changes":[3.1553156E1,1.3782099E1,1.0445052E1,3.6365387E0,3.625E0,3.4298515E0,1.4035819E0,7.310622E-1,1.6927644E0,2.9433212E0,9.821007E-1,2.43912E0,1.7044258E0,1.7032331E0,2.0685887E0,4.762675E-1,1.0795074E0,1.0273383E0,5.820534E-1,1.1461285E0,1.7178688E0,7.119641E-1,1.174412E0,4.924686E-1,1.0802999E0,6.892395E-1,1.4527371E0,1.3322904E0,0E0,1.2259436E-1,5.250144E-1,0E0,0E0,0E0,2.0981932E-1,6.4397943E-1,9.028902E-1,5.3441286E-1,7.878735E-1,3.79748E-1,0E0,0E0,1.5688667E0,7.129073E-3,0E0,1.0681329E0,7.7025646E-1,4.8840836E-1,0E0,4.1817027E-1,9.676428E-1,4.2046165E-1,2.117831E0,9.7177327E-1,1.214714E0,6.368452E-1,1.0636463E0,0E0,0E0,1.06316105E-1,2.0646155E-2,0E0,0E0,0E0,0E0,8.9910567E-1,7.588239E-1,0E0,4.9471033E-1,0E0,0E0,0E0,0E0,1.3222466E0,3.0206817E-1,0E0,0E0,7.862606E-1,9.9408376E-1,0E0,6.402486E-1,0E0,0E0,0E0,0E0,4.0139127E-1,2.9018992E-1,0E0,1.5235329E-1,0E0,6.7871237E-1,4.492879E-1,4.5918322E-1,5.5582213E-1,6.052327E-1,2.6099336E-1,7.3901796E-1,8.027737E-1,0E0,0E0,0E0,0E0,0E0,0E0,0E0,6.336169E-1,0E0,2.2145301E-1,1.1259422E-2,1.2861251E0,6.451912E-1,0E0,0E0,0E0,3.916483E-1,3.78424E-1,0E0,0E0,0E0,3.2173395E-1,0E0,0E0,0E0,0E0,1.0967636E-1,8.710511E-1,3.2661295E-1,2.9655933E-1,1.2664887E0,0E0,0E0,0E0,3.408183E-1,2.3654175E-1,6.792356E-1,0E0,0E0,5.7862467E-1,2.2585356E-1,0E0,3.7725377E-1,0E0,0E0,0E0,0E0,0E0,0E0,0E0,0E0,0E0,0E0,0E0,0E0,0E0,0E0,0E0,0E0,0E0,0E0,0E0,0E0,0E0,0E0,0E0,0E0,0E0,0E0,0E0,0E0,0E0,0E0,0E0,0E0,0E0,0E0,0E0,0E0,0E0,0E0],"parents":[2147483647,0,0,1,1,2,2,3,3,4,4,5,5,6,6,7,7,8,8,9,9,10,10,11,11,12,12,13,13,14,14,15,15,16,16,17,17,18,18,19,19,20,20,21,21,22,22,23,23,24,24,25,25,26,26,27,27,29,29,30,30,34,34,35,35,36,36,37,37,38,38,39,39,42,42,43,43,45,45,46,46,47,47,49,49,50,50,51,51,52,52,53,53,54,54,55,55,56,56,59,59,60,60,65,65,66,66,68,68,73,73,74,74,77,77,78,78,80,80,85,85,86,86,88,88,90,90,91,91,92,92,93,93,94,94,95,95,96,96,97,97,105,105,107,107,108,108,109,109,110,110,114,114,115,115,119,119,124,124,125,125,126,126,127,127,128,128,132,132,133,133,134,134,137,137,138,138,140,140],"right_children":[2,4,6,8,10,12,14,16,18,20,22,24,26,28,30,32,34,36,38,40,42,44,46,48,50,52,54,56,-1,58,60,-1,-1,-1,62,64,66,68,70,72,-1,-1,74,76,-1,78,80,82,-1,84,86,88,90,92,94,96,98,-1,-1,100,102,-1,-1,-1,-1,104,106,-1,108,-1,-1,-1,-1,110,112,-1,-1,114,116,-1,118,-1,-1,-1,-1,120,122,-1,124,-1,126,128,130,132,134,136,138,140,-1,-1,-1,-1,-1,-1,-1,142,-1,144,146,148,150,-1,-1,-1,152,154,-1,-1,-1,156,-1,-1,-1,-1,158,160,162,164,166,-1,-1,-1,168,170,172,-1,-1,174,176,-1,178,-1,-1,-1,-1,-1,-1,-1,-1,-1,-1,-1,-1,-1,-1,-1,-1,-1,-1,-1,-1,-1,-1,-1,-1,-1,-1,-1,-1,-1,-1,-1,-1,-1,-1,-1,-1,-1,-1],"split_conditions":[1.2448617E-3,8.915659E-2,1.2492322E1,1.6556002E-2,1.1554124E0,3.6475712E-1,6.3993967E-1,1.17108375E-1,1.99167E-1,1.1190004E3,1.2358549E0,3.8181782E-1,3.0307343E2,3.440925E-1,5.1516127E-3,6.580147E-1,9.2048873E-4,1.7166939E0,1.7667819E3,1.454746E-1,4.473513E-1,2.3511939E-2,1.3763172E1,7.1805465E-1,1.21851385E-1,7.197518E-3,3.693867E-3,1.2134382E0,2.1802531E-1,1.2633371E1,6.7343703E-3,9.538108E-2,-1.0071063E-1,-4.4491675E-2,3.3284062E-1,1.5244296E2,3.0262798E-1,1.23425415E2,7.261913E-1,5.13525E0,1.5503418E-1,-5.8195155E-2,2.72164E3,1.4175864E3,8.440827E-2,3.5521477E-2,1.1169696E-2,1.3357356E-1,2.5057846E-1,5.3347197E0,7.331663E-1,3.203006E-4,1.0747032E1,1.534273E3,1.4814642E-1,1.3474274E1,1.2024174E0,6.6992246E-2,2.8689283E-1,1.6666686E-3,3.2965627E0,4.1997455E-2,2.433399E-1,1.7466852E-1,-4.188505E-2,5.587597E0,1.11604706E2,2.2685896E-1,7.751273E-1,-1.2235988E-1,1.197075E-1,-1.5101707E-1,2.5658742E-2,-9.992007E-16,4.0073037E-1,-4.2224355E-2,-1.5178655E-1,4.9691296E2,3E0,-1.4872953E-1,1.5E0,1.498692E-1,-4.3442078E-2,-1.895753E-2,1.8984379E-1,3.1463522E-1,5.990771E-1,6.4302166E-3,8.756435E-1,1.6862546E-1,1.1293827E1,5.8662575E-1,8.7860274E-1,1.1094999E1,4.456254E0,1.5430144E3,8.511106E-1,7.498291E-3,1.0635237E-1,-1.21524215E-1,-7.8514945E-3,2.3222394E-2,1.1263806E-1,1.9695185E-1,-8.455655E-2,8.506697E1,8.017024E-2,1.5847978E1,3.800417E1,3.853966E-1,2.4202862E0,7.018673E-2,-8.714537E-2,-2.6449602E-2,2.706647E-3,4.08859E1,1.64985E-1,1.6292424E-1,-7.416038E-2,1.2874493E1,4.572723E-2,-3.3079192E-2,1.2826948E-1,-3.9152466E-2,1.246115E3,1.6927092E3,6.158342E0,6.8528423E0,1.4742505E-2,-2.374391E-2,1.8930252E-1,1.3374917E-1,1.5784447E1,3.2176375E-2,1.4102544E-1,2.2796679E-1,2.334194E-2,1.01360716E-1,1.4034792E3,8.658496E-2,4.0042863E0,-4.1243613E-2,-1.2875839E-1,2.7918266E-3,1.7112707E-1,-1.2273761E-2,-6.844596E-2,1.7226136E-1,-1.10586956E-1,1.9457826E-3,2.225692E-1,2.3132578E-2,2.2017545E-1,3.6978334E-2,-1.3268149E-1,-1.3914599E-1,-4.5656975E-2,-3.54663E-2,-1.8307719E-1,1.1055218E-1,-1.11214064E-1,-1.6550164E-1,5.3606755E-3,-1.0435175E-1,3.7564315E-2,2.1481262E-1,-9.373209E-2,-8.470869E-2,6.638471E-2,-1.7577086E-1,-1.4811748E-2,-1.1628363E-1,1.163449E-1,8.4752075E-2,-9.259215E-2,1.910878E-1,1.1908193E-2,-1.5463095E-2,-1.6407304E-1],"split_indices":[3,25,11,8,0,5,3,21,8,10,0,3,4,25,26,5,26,19,10,21,0,23,11,2,21,23,26,9,0,11,7,0,0,0,20,15,9,4,0,18,0,0,10,10,0,7,26,21,0,19,3,25,11,4,3,11,5,0,0,23,9,0,0,0,0,18,17,0,24,0,0,0,0,14,9,0,0,10,12,0,12,0,0,0,0,5,0,0,1,0,11,3,2,11,16,10,2,7,0,0,0,0,0,0,0,17,0,9,19,2,15,0,0,0,5,15,0,0,0,12,0,0,0,0,10,10,18,18,14,0,0,0,22,23,6,0,0,9,10,0,19,0,0,0,0,0,0,0,0,0,0,0,0,0,0,0,0,0,0,0,0,0,0,0,0,0,0,0,0,0,0,0,0,0,0,0,0,0,0],"split_type":[0,0,0,0,0,0,0,0,0,0,0,0,0,0,0,0,0,0,0,0,0,0,0,0,0,0,0,0,0,0,0,0,0,0,0,0,0,0,0,0,0,0,0,0,0,0,0,0,0,0,0,0,0,0,0,0,0,0,0,0,0,0,0,0,0,0,0,0,0,0,0,0,0,0,0,0,0,0,0,0,0,0,0,0,0,0,0,0,0,0,0,0,0,0,0,0,0,0,0,0,0,0,0,0,0,0,0,0,0,0,0,0,0,0,0,0,0,0,0,0,0,0,0,0,0,0,0,0,0,0,0,0,0,0,0,0,0,0,0,0,0,0,0,0,0,0,0,0,0,0,0,0,0,0,0,0,0,0,0,0,0,0,0,0,0,0,0,0,0,0,0,0,0,0,0,0,0,0,0],"sum_hessian":[3.730276E2,1.785014E2,1.945262E2,6.51022E1,1.133992E2,1.59287E2,3.52392E1,1.03564625E1,5.474574E1,8.938651E1,2.4012686E1,2.9666435E1,1.2962056E2,2.5218E1,1.0021199E1,2.4614716E0,7.8949914E0,4.5754875E1,8.990866E0,5.2491493E0,8.413737E1,4.351627E0,1.9661058E1,4.783189E0,2.4883245E1,8.879897E1,4.082159E1,2.2666647E1,2.5513532E0,5.4881067E0,4.533092E0,1.2053201E0,1.2561514E0,1.3052982E0,6.589693E0,3.3346286E0,4.2420246E1,5.868506E0,3.1223595E0,4.0363917E0,1.212758E0,1.9216439E0,8.221572E1,3.1512153E0,1.2004113E0,1.5178965E1,4.482094E0,3.0096002E0,1.7735887E0,2.2621167E0,2.262113E1,6.46822E1,2.4116774E1,1.3242402E1,2.7579187E1,1.0557376E1,1.2109272E1,1.0061158E0,4.481991E0,2.5041597E0,2.0289323E0,1.0114264E0,5.5782666E0,1.4884332E0,1.8461953E0,2.3008633E0,4.011938E1,1.5243405E0,4.3441653E0,2.0945897E0,1.0277699E0,2.8684394E0,1.1679521E0,7.970519E1,2.5105247E0,1.0935742E0,2.0576413E0,1.0282207E1,4.896758E0,2.1749527E0,2.307141E0,1.192437E0,1.8171632E0,1.2031294E0,1.0589873E0,1.9969185E1,2.6519456E0,1.0502851E0,6.3631912E1,1.4783503E0,2.2638422E1,1.0265432E1,2.97697E0,5.892509E0,2.1686678E1,2.5784068E0,7.9789686E0,1.0370405E1,1.7388663E0,1.1479564E0,1.3562032E0,1.000424E0,1.0285083E0,1.1677439E0,1.1331193E0,3.869421E1,1.4251704E0,2.2787623E0,2.0654032E0,3.8350842E0,7.587011E1,1.0044545E0,1.5060701E0,1.4043922E0,8.877814E0,3.687102E0,1.2096559E0,1.2006701E0,1.106471E0,1.894226E1,1.026923E0,1.1054934E0,1.5464523E0,1.3222308E0,6.230968E1,4.595797E0,1.8042625E1,7.2766423E0,2.9887903E0,1.0244666E0,1.9525033E0,1.1039488E0,4.7885604E0,1.914709E1,2.539587E0,1.534805E0,1.0436019E0,5.710785E0,2.268184E0,1.0259179E0,9.344487E0,1.1902188E1,2.6792025E1,1.0848626E0,1.1938996E0,1.0105616E0,1.0548416E0,1.7927728E0,2.0423114E0,1.2300824E0,7.464003E1,1.2973992E0,7.5804152E0,1.262282E0,2.42482E0,1.2825546E1,6.1167145E0,1.0004122E0,6.130927E1,1.7450184E0,2.8507786E0,1.7041515E1,1.0011108E0,6.1901546E0,1.0864879E0,1.0850775E0,1.9037126E0,3.756711E0,1.0318494E0,1.8086283E1,1.0608072E0,1.4064353E0,1.1331518E0,1.5278962E0,4.1828885E0,1.1754453E0,1.0927386E0,2.1681821E0,7.1763053E0],"tree_param":{"num_deleted":"0","num_feature":"27","num_nodes":"179","size_leaf_vector":"0"}},{"base_weights":[-3.743287E-2,-4.5364696E-1,2.1442875E-1,-5.343423E-1,-6.0980897E-2,-1.9199258E-1,4.099827E-1,-5.745519E-1,1.7332053E-2,-3.7254626E-1,5.306433E-1,-2.988794E-1,2.7983138E-1,4.6431836E-1,-2.751262E-1,-5.799165E-1,-4.5494262E-2,3.3369365E-1,-4.7211143E-1,-5.692146E-1,5.009339E-1,-1.6358061E-1,6.9350994E-1,-9.539552E-2,-5.8826756E-1,5.508767E-1,-2.1702017E-1,-5.019347E-1,4.9942023E-1,-4.7525522E-1,4.9302983E-1,-3.0582935E-1,-5.8881396E-1,6.118752E-1,-3.0474564E-1,1.5218548E-1,5.9578705E-1,-4.6295595E-1,1.1713268E-1,6.945756E-1,-5.211036E-2,-4.6714988E-1,1.5471677E-1,-1.4188732E-1,-5.5814564E-1,6.3158506E-1,2.3121466E-1,5.165932E-3,-5.933585E-1,-4.887936E-1,2.0596834E-1,-5.417123E-1,1.428871E-1,-3.149451E-1,3.467165E-1,-2.1275671E-1,6.4944583E-1,-2.7939895E-1,4.6046203E-1,2.9496866E-1,-5.534865E-1,-3.1841236E-1,4.8955503E-1,6.641059E-1,-8.650381E-2,-5.397354E-1,3.3077163E-1,-6.0484195E-1,5.511272E-1,-4.262219E-1,6.248095E-1,2.6825526E-1,6.9150054E-1,-6.3446593E-1,-7.8102075E-2,-2.9631636E-1,5.836209E-1,6.272628E-1,-2.9494518E-1],"categories":[],"categories_nodes":[],"categories_segments":[],"categories_sizes":[],"default_left":[1,1,1,1,1,1,1,1,1,1,1,1,1,1,1,1,0,1,0,0,1,0,0,1,0,1,1,1,1,1,0,1,0,0,0,0,0,1,1,0,0,0,0,0,0,1,1,0,0,0,0,0,0,1,1,0,1,1,1,0,0,0,1,1,0,1,1,0,1,0,0,0,0,0,0,0,0,0,0],"id":9,"left_children":[1,3,5,7,9,11,13,15,17,19,21,23,25,27,29,31,-1,33,-1,-1,35,-1,-1,37,-1,39,41,43,45,47,-1,49,-1,-1,-1,-1,-1,51,53,-1,-1,-1,-1,-1,-1,55,57,-1,-1,-1,-1,-1,-1,59,61,-1,63,65,67,-1,-1,-1,69,71,-1,73,75,-1,77,-1,-1,-1,-1,-1,-1,-1,-1,-1,-1],"loss_changes":[3.416094E1,3.85927E0,1.622234E1,2.2672062E0,4.265307E0,3.4457283E0,5.244671E0,2.428875E-1,1.3782469E0,2.8691978E0,1.0207725E0,3.1729794E0,1.8473009E0,4.582859E0,1.8836031E0,4.8761368E-2,0E0,1.1409642E0,0E0,0E0,1.8372059E-2,0E0,0E0,2.6626046E0,0E0,7.799623E-1,5.6004804E-1,2.151668E-2,4.240637E0,5.1486707E-1,0E0,5.7179E-1,0E0,0E0,0E0,0E0,0E0,6.7074203E-1,2.2871237E0,0E0,0E0,0E0,0E0,0E0,0E0,1.3796539E0,5.095224E0,0E0,0E0,0E0,0E0,0E0,0E0,1.3478513E0,1.5632285E0,0E0,9.298973E-1,2.365727E0,3.1980586E0,0E0,0E0,0E0,1.8255622E0,6.755371E-1,0E0,3.8911748E-1,9.24159E-1,0E0,1.9794312E0,0E0,0E0,0E0,0E0,0E0,0E0,0E0,0E0,0E0,0E0],"parents":[2147483647,0,0,1,1,2,2,3,3,4,4,5,5,6,6,7,7,8,8,9,9,10,10,11,11,12,12,13,13,14,14,15,15,17,17,20,20,23,23,25,25,26,26,27,27,28,28,29,29,31,31,37,37,38,38,45,45,46,46,53,53,54,54,56,56,57,57,58,58,62,62,63,63,65,65,66,66,68,68],"right_children":[2,4,6,8,10,12,14,16,18,20,22,24,26,28,30,32,-1,34,-1,-1,36,-1,-1,38,-1,40,42,44,46,48,-1,50,-1,-1,-1,-1,-1,52,54,-1,-1,-1,-1,-1,-1,56,58,-1,-1,-1,-1,-1,-1,60,62,-1,64,66,68,-1,-1,-1,70,72,-1,74,76,-1,78,-1,-1,-1,-1,-1,-1,-1,-1,-1,-1],"split_conditions":[1.0870257E-2,1.3743207E2,1.7167576E-1,1.497701E-2,2.161041E3,2.1677373E3,8.8798883E2,9.189215E-1,1.4096491E1,1.4873558E-1,2.5484765E0,9.194925E1,5.430808E-1,1.4461139E-3,2.0745742E3,6.8412304E-1,-1.3648279E-2,1.670363E-1,-1.4163344E-1,-1.7076439E-1,8.7715904E1,-4.9074184E-2,2.08053E-1,1.1340339E1,-1.7648028E-1,8.098384E-1,1.01724386E-1,1.5700293E-1,4.0012104E-3,8.0264544E-1,1.4790896E-1,1.5876973E-1,-1.7664419E-1,1.8356256E-1,-9.14237E-2,4.5655645E-2,1.7873612E-1,4.2318555E3,2.742884E0,2.083727E-1,-1.5633108E-2,-1.4014497E-1,4.6415035E-2,-4.25662E-2,-1.674437E-1,4.8235586E-4,1.2615916E-1,1.5497796E-3,-1.7800756E-1,-1.466381E-1,6.1790504E-2,-1.6251369E-1,4.2866133E-2,5.942074E1,1.1126855E-2,-6.3827015E-2,1.7252588E0,1.7661926E3,1.0547057E-1,8.8490605E-2,-1.6604596E-1,-9.5523715E-2,3.6321832E2,1.13769944E-4,-2.5951145E-2,5.37237E0,1.1049998E1,-1.8145259E-1,1.8340134E1,-1.2786658E-1,1.8744285E-1,8.047658E-2,2.0745017E-1,-1.9033979E-1,-2.3430623E-2,-8.889491E-2,1.7508627E-1,1.8817884E-1,-8.848356E-2],"split_indices":[3,15,7,14,10,10,4,24,22,21,19,17,3,25,10,1,0,7,0,0,17,0,0,11,0,5,6,3,23,5,0,21,0,0,0,0,0,4,18,0,0,0,0,0,0,26,21,0,0,0,0,0,0,17,8,0,5,10,24,0,0,0,10,14,0,13,11,0,22,0,0,0,0,0,0,0,0,0,0],"split_type":[0,0,0,0,0,0,0,0,0,0,0,0,0,0,0,0,0,0,0,0,0,0,0,0,0,0,0,0,0,0,0,0,0,0,0,0,0,0,0,0,0,0,0,0,0,0,0,0,0,0,0,0,0,0,0,0,0,0,0,0,0,0,0,0,0,0,0,0,0,0,0,0,0,0,0,0,0,0,0],"sum_hessian":[3.2394702E2,1.2182457E2,2.0212245E2,1.00757484E2,2.106709E1,6.566616E1,1.3645628E2,9.387388E1,6.883605E0,1.4042321E1,7.024768E0,5.3836582E1,1.1829576E1,1.2672784E2,9.728452E0,9.283639E1,1.0374898E0,4.374365E0,2.5092402E0,1.1745991E1,2.2963302E0,1.3340324E0,5.690736E0,3.2390663E1,2.1445919E1,7.583724E0,4.245851E0,3.976164E0,1.2275167E2,8.020231E0,1.7082207E0,4.0310817E0,8.8805305E1,3.0757873E0,1.2985775E0,1.047906E0,1.2484242E0,1.1435324E1,2.095534E1,6.001584E0,1.5821402E0,2.3846378E0,1.8612133E0,1.0128374E0,2.9633265E0,8.132295E1,4.1428722E1,1.7712783E0,6.248953E0,3.0026147E0,1.0284672E0,1.0213481E1,1.2218434E0,7.142088E0,1.38132515E1,1.458585E0,7.9864365E1,1.2768985E1,2.8659739E1,1.9414774E0,5.2006106E0,2.2247071E0,1.1588544E1,7.840026E1,1.4641079E0,9.031167E0,3.737818E0,1.8030435E0,2.6856695E1,1.2144597E0,1.0374084E1,5.773002E0,7.262726E1,7.1828084E0,1.8483586E0,1.0246612E0,2.7131567E0,2.4876728E1,1.9799666E0],"tree_param":{"num_deleted":"0","num_feature":"27","num_nodes":"79","size_leaf_vector":"0"}},{"base_weights":[4.54714E-2,-7.621898E-2,2.3496962E-1,2.2615284E-2,-3.423691E-1,-4.4361997E-1,2.9574478E-1,-6.4392455E-2,3.0865377E-1,-4.494847E-1,4.5372522E-1,-5.924504E-1,3.9149192E-1,1.21131174E-1,4.397717E-1,-1.479377E-1,4.05879E-1,1.1927306E-1,4.911409E-1,6.794818E-2,-5.139528E-1,6.052357E-1,8.011286E-2,1.9977717E-1,-3.873422E-1,5.429879E-1,3.6263555E-2,-6.545238E-2,-4.555227E-1,4.8758703E-1,-4.2817E-1,3.4561026E-1,-2.1703486E-1,6.5302455E-1,-1.1762049E-2,4.0381536E-1,-4.160658E-1,-5.4637194E-1,2.5693914E-1,3.655102E-1,-2.1218476E-1,3.2541332E-1,-1.5532091E-1,1.6599633E-1,-5.606316E-1,6.6344976E-1,3.6038804E-1,-2.400767E-1,3.173574E-1,3.8095805E-1,-1.2024043E-1,-5.194472E-1,1.19102806E-1,7.0568436E-1,2.286723E-1,4.3488377E-1,-2.616764E-1,-3.5631675E-1,3.9566788E-1,6.9598293E-1,8.6844124E-2,4.435058E-1,-4.3058547E-1,7.588493E-1,-1.6896683E-1,-5.5952823E-1,4.458281E-3,6.7073125E-1,1.8492244E-1,4.1990322E-1,-4.2137337E-1,6.999939E-1,7.850943E-3,6.598216E-1,1.9014084E-1,-4.1478163E-1,3.3696184E-1,-1.6095242E-1,6.0075384E-1,5.1809907E-1,-3.7619314E-1,-2.7931374E-1,4.564041E-2,-5.750692E-1,1.4255592E-1,1.7049076E-1,8.0320907E-1,3.689436E-1,-1.67187E-1,-3.27295E-2,5.121796E-1,-5.2468985E-1,2.4574162E-1,1.3946229E-1,7.3261327E-1,-5.713864E-1,-2.9148728E-2,7.561175E-1,-7.556613E-2,5.666649E-1,-4.0525813E-3,6.1654073E-1,-1.5149568E-1,1.4190389E-1,-5.163272E-1,7.5544024E-1,2.3617831E-1,7.991176E-1,1.4472536E-3,5.429633E-1,-1.00106396E-1,-5.568372E-1,-1.3109236E-2,1.504039E-1,-4.5470852E-1,6.707581E-1,1.9966099E-1,-1.6338475E-1,7.045951E-1,-3.8626388E-1,1.0424022E-1,2.106592E-1,-2.171985E-1,-6.0826635E-1,-3.6405514E-3,5.426634E-1,-1.1302322E-1,1.5375756E-1,-4.0125567E-1,2.5918186E-1,6.1176217E-1,6.3629754E-2,-6.570457E-1,2.3532817E-1,7.6725787E-1,-3.578679E-2,-5.848169E-1,8.189107E-2,8.586668E-1,1.4829059E-1,6.730733E-1,-5.5446327E-1,1.4781581E-1,-6.152571E-1,1.0621318E-1,3.9688826E-2,7.8735274E-1,-1.5298907E-1,4.0465847E-1,8.020377E-1,5.0697397E-2,4.4400248E-1,-4.7540632E-1],"categories":[],"categories_nodes":[],"categories_segments":[],"categories_sizes":[],"default_left":[1,1,1,1,1,1,1,1,1,1,1,0,0,1,1,1,1,1,1,1,1,0,1,1,1,1,1,1,1,1,0,1,1,1,1,1,0,1,0,0,0,1,1,0,0,1,1,1,1,1,1,1,0,1,1,1,0,1,0,1,0,0,0,0,0,1,0,1,1,1,1,1,0,1,1,1,0,1,1,1,0,1,1,1,0,0,0,1,1,0,1,1,0,0,1,1,0,1,0,1,1,0,0,0,1,1,1,0,0,1,1,0,0,0,0,0,0,0,0,0,0,0,0,0,0,0,0,0,0,0,0,0,0,0,0,0,0,0,0,0,0,0,0,0,0,0,0,0,0,0,0,0,0],"id":10,"left_children":[1,3,5,7,9,11,13,15,17,19,21,-1,-1,23,25,27,29,31,33,35,37,-1,39,41,43,45,47,49,51,53,-1,55,57,59,61,63,-1,65,-1,-1,-1,67,69,-1,-1,71,73,75,77,79,81,83,-1,85,87,89,-1,91,-1,93,-1,-1,-1,-1,-1,95,-1,97,99,101,103,105,-1,107,109,111,-1,113,115,117,-1,119,121,123,-1,-1,-1,125,127,-1,129,131,-1,-1,133,135,-1,137,-1,139,141,-1,-1,-1,143,145,147,-1,-1,149,151,-1,-1,-1,-1,-1,-1,-1,-1,-1,-1,-1,-1,-1,-1,-1,-1,-1,-1,-1,-1,-1,-1,-1,-1,-1,-1,-1,-1,-1,-1,-1,-1,-1,-1,-1,-1,-1,-1,-1,-1,-1,-1],"loss_changes":[8.079534E0,5.6274605E0,5.779322E0,3.9203918E0,5.1424494E0,1.6808393E0,3.1229439E0,4.8139653E0,1.2106757E0,1.7544374E0,3.6846495E-1,0E0,0E0,2.415413E0,2.8469467E0,2.5955687E0,1.4708982E0,1.5474279E0,1.504272E0,1.2399815E0,1.2888365E0,0E0,3.509914E-1,2.3389447E0,8.7665284E-1,9.649277E-1,1.2484678E0,2.0700595E0,8.5948324E-1,8.1753254E-1,0E0,7.615521E-1,8.574581E-1,2.7822542E-1,1.2318318E0,1.0230489E0,0E0,3.2439137E-1,0E0,0E0,0E0,1.7297859E0,2.3320847E0,0E0,0E0,7.561674E-1,1.0952749E0,9.6434903E-1,1.1691922E0,1.1592599E0,1.9779979E0,8.0835915E-1,0E0,3.291564E-1,5.8394146E-1,4.0684772E-1,0E0,8.7571555E-1,0E0,1.5875578E-1,0E0,0E0,0E0,0E0,0E0,2.562399E-1,0E0,7.3705864E-1,2.061321E0,6.500689E-1,6.1496305E-1,5.9569263E-1,0E0,7.577472E-1,1.7615899E0,3.765298E-1,0E0,4.0976948E-1,1.151216E-2,1.1679277E0,0E0,1.6056008E0,1.6643667E0,3.467636E-1,0E0,0E0,0E0,6.6889375E-1,2.982548E-1,0E0,7.6289415E-2,5.149157E-1,0E0,0E0,2.2289276E-2,2.8398323E-1,0E0,5.979552E-1,0E0,3.2124305E-1,1.7607983E0,0E0,0E0,0E0,6.1240125E-1,5.7250214E-1,3.6804232E-1,0E0,0E0,9.388213E-1,2.251303E0,0E0,0E0,0E0,0E0,0E0,0E0,0E0,0E0,0E0,0E0,0E0,0E0,0E0,0E0,0E0,0E0,0E0,0E0,0E0,0E0,0E0,0E0,0E0,0E0,0E0,0E0,0E0,0E0,0E0,0E0,0E0,0E0,0E0,0E0,0E0,0E0,0E0,0E0,0E0,0E0,0E0,0E0],"parents":[2147483647,0,0,1,1,2,2,3,3,4,4,5,5,6,6,7,7,8,8,9,9,10,10,13,13,14,14,15,15,16,16,17,17,18,18,19,19,20,20,22,22,23,23,24,24,25,25,26,26,27,27,28,28,29,29,31,31,32,32,33,33,34,34,35,35,37,37,41,41,42,42,45,45,46,46,47,47,48,48,49,49,50,50,51,51,53,53,54,54,55,55,57,57,59,59,65,65,67,67,68,68,69,69,70,70,71,71,73,73,74,74,75,75,77,77,78,78,79,79,81,81,82,82,83,83,87,87,88,88,90,90,91,91,94,94,95,95,97,97,99,99,100,100,104,104,105,105,106,106,109,109,110,110],"right_children":[2,4,6,8,10,12,14,16,18,20,22,-1,-1,24,26,28,30,32,34,36,38,-1,40,42,44,46,48,50,52,54,-1,56,58,60,62,64,-1,66,-1,-1,-1,68,70,-1,-1,72,74,76,78,80,82,84,-1,86,88,90,-1,92,-1,94,-1,-1,-1,-1,-1,96,-1,98,100,102,104,106,-1,108,110,112,-1,114,116,118,-1,120,122,124,-1,-1,-1,126,128,-1,130,132,-1,-1,134,136,-1,138,-1,140,142,-1,-1,-1,144,146,148,-1,-1,150,152,-1,-1,-1,-1,-1,-1,-1,-1,-1,-1,-1,-1,-1,-1,-1,-1,-1,-1,-1,-1,-1,-1,-1,-1,-1,-1,-1,-1,-1,-1,-1,-1,-1,-1,-1,-1,-1,-1,-1,-1,-1,-1],"split_conditions":[4.227682E2,5.4824114E-1,1.6054559E-1,9.986053E-1,1.717139E0,4.654321E-1,3.0008159E0,1.3179729E0,7.7583466E0,1.0754742E1,3.5343608E-1,-1.7773512E-1,1.1744758E-1,1.2065971E0,1.0624794E2,2.2353494E3,1.4352909E-1,2.7405267E0,4.324783E-3,2.2282034E3,1.7454626E-2,1.8157071E-1,4.1647017E-1,4.4821354E1,1.783459E0,1.3750361E-1,8.804791E-1,6.318306E0,1.3618416E1,1.02543625E2,-1.28451E-1,1.1310129E0,9.824136E0,5.356952E-1,6.491052E-3,8.44352E1,-1.2481975E-1,7.2022924E0,7.708175E-2,1.0965306E-1,-6.365543E-2,5.303758E-2,3.7235913E-3,4.9798902E-2,-1.6818948E-1,1.4704138E0,2.016214E-2,2.0000782E-2,6.121166E-1,3.48202E2,3.6471066E0,1.1426323E2,3.5730843E-2,1.8611224E-1,1.5315393E-3,1.2820265E-3,-7.850292E-2,4.435983E-2,1.1870037E-1,2.565155E0,2.6053239E-2,1.3305174E-1,-1.2917565E-1,2.276548E-1,-5.069005E-2,1.2071388E2,1.3374845E-3,3.42226E-2,5.5008593E0,9.555161E-2,2.807324E-3,1.9604243E-2,2.3552831E-3,1.2436668E1,1.2021249E1,9.67617E-1,1.0108855E-1,4.2952337E0,5.257432E-1,3.126657E-1,-1.12857945E-1,1.9216775E3,4.8453858E-1,3.6663794E2,4.276678E-2,5.114723E-2,2.4096273E-1,4.5350608E-1,6.719921E0,-9.81885E-3,1.0615773E2,1.1431374E-1,7.372249E-2,4.183869E-2,1.1746922E-1,1.3155438E1,-8.744619E-3,2.9683664E-1,-2.2669839E-2,9.998158E-1,8.272289E0,1.8496223E-1,-4.5448706E-2,4.257117E-2,1.4153793E1,4.50015E-2,3.5E0,2.3973529E-1,4.341761E-4,7.708366E-2,3.4764935E-3,-1.6705117E-1,-3.932771E-3,4.512117E-2,-1.3641256E-1,2.0122744E-1,5.98983E-2,-4.901543E-2,2.1137853E-1,-1.1587917E-1,3.1272065E-2,6.319776E-2,-6.515955E-2,-1.8247992E-1,-1.0921655E-3,1.6279903E-1,-3.3906966E-2,4.6127267E-2,-1.20376706E-1,7.775456E-2,1.8352866E-1,1.9088928E-2,-1.9711372E-1,7.059845E-2,2.3017737E-1,-1.0736037E-2,-1.7544506E-1,2.4567321E-2,2.5760004E-1,4.448718E-2,2.01922E-1,-1.6633898E-1,4.4344746E-2,-1.8457714E-1,3.1863958E-2,1.1906648E-2,2.3620583E-1,-4.5896724E-2,1.2139755E-1,2.4061133E-1,1.5209219E-2,1.3320075E-1,-1.426219E-1],"split_indices":[4,7,2,2,5,24,16,5,9,11,0,0,0,5,17,10,26,9,26,10,23,0,1,15,18,21,2,15,22,4,0,5,22,3,23,4,0,20,0,0,0,6,26,0,0,0,8,26,20,4,16,17,0,2,3,26,0,23,0,18,0,0,0,0,0,17,0,7,15,25,7,23,0,11,15,5,0,16,25,2,0,10,24,4,0,0,0,2,22,0,17,21,0,0,21,9,0,20,0,1,15,0,0,0,9,5,12,0,0,25,3,0,0,0,0,0,0,0,0,0,0,0,0,0,0,0,0,0,0,0,0,0,0,0,0,0,0,0,0,0,0,0,0,0,0,0,0,0,0,0,0,0,0],"split_type":[0,0,0,0,0,0,0,0,0,0,0,0,0,0,0,0,0,0,0,0,0,0,0,0,0,0,0,0,0,0,0,0,0,0,0,0,0,0,0,0,0,0,0,0,0,0,0,0,0,0,0,0,0,0,0,0,0,0,0,0,0,0,0,0,0,0,0,0,0,0,0,0,0,0,0,0,0,0,0,0,0,0,0,0,0,0,0,0,0,0,0,0,0,0,0,0,0,0,0,0,0,0,0,0,0,0,0,0,0,0,0,0,0,0,0,0,0,0,0,0,0,0,0,0,0,0,0,0,0,0,0,0,0,0,0,0,0,0,0,0,0,0,0,0,0,0,0,0,0,0,0,0,0],"sum_hessian":[3.4859177E2,2.1263889E2,1.3595287E2,1.5572557E2,5.6913315E1,1.0657406E1,1.2529546E2,1.1999894E2,3.5726627E1,5.054747E1,6.365843E0,9.291996E0,1.3654103E0,5.7466263E1,6.78292E1,1.0247869E2,1.7520252E1,1.8343641E1,1.7382986E1,5.5941114E0,4.495336E1,4.0880613E0,2.277782E0,5.0294304E1,7.1719575E0,5.373761E1,1.409159E1,8.17646E1,2.0714087E1,1.6335348E1,1.1849036E0,1.09479475E1,7.395693E0,1.2924198E1,4.458789E0,3.4002817E0,2.1938298E0,4.3418674E1,1.5346864E0,1.0257622E0,1.2520196E0,3.721203E1,1.3082275E1,1.7204361E0,5.4515214E0,3.079119E1,2.2946423E1,7.1794605E0,6.9121294E0,8.287242E0,7.347736E1,1.8726835E1,1.9872518E0,7.9299726E0,8.405375E0,9.792328E0,1.1556202E0,6.366815E0,1.0288776E0,1.1799651E1,1.1245463E0,2.1082041E0,2.3505847E0,1.898602E0,1.5016797E0,4.239041E1,1.028261E0,9.669874E0,2.7542154E1,3.9543724E0,9.127903E0,2.9101316E1,1.6898724E0,7.275132E0,1.567129E1,5.726797E0,1.4526634E0,2.7324405E0,4.179689E0,7.2836895E0,1.003552E0,3.7159252E1,3.6318108E1,1.739649E1,1.330346E0,1.645888E0,6.284085E0,6.2564263E0,2.1489484E0,1.4708372E0,8.32149E0,5.0758085E0,1.2910066E0,1.02557E0,1.0774081E1,4.1387753E1,1.0026618E0,8.665292E0,1.0045824E0,8.457932E0,1.9084223E1,2.8831735E0,1.0711989E0,1.2454275E0,7.882476E0,2.5432291E1,3.6690269E0,5.8282437E0,1.4468886E0,6.6801972E0,8.991093E0,3.9452295E0,1.7815678E0,1.5633844E0,1.1690562E0,2.986174E0,1.1935147E0,1.5916159E0,5.692074E0,2.9051476E1,8.107778E0,2.243267E1,1.3885435E1,1.6380404E1,1.0160863E0,4.5062585E0,1.7501681E0,1.0509887E0,1.0979599E0,3.3678558E0,4.9536347E0,1.0275625E0,4.0482464E0,1.209251E0,9.564831E0,1.102078E0,4.028567E1,1.3814273E0,7.2838645E0,2.200328E0,6.257604E0,3.553709E0,1.5530513E1,6.8117046E0,1.0707711E0,1.1812925E0,2.4250998E1,1.1362901E0,2.5327368E0,3.9644637E0,2.7157335E0,3.5954125E0,5.3956804E0],"tree_param":{"num_deleted":"0","num_feature":"27","num_nodes":"153","size_leaf_vector":"0"}},{"base_weights":[-1.0274779E-5,2.3098189E-1,-2.4448796E-1,2.6507624E-3,4.0046024E-1,-6.0312552E-3,-4.2958996E-1,3.1586683E-1,-8.526825E-2,1.8100804E-1,4.6861893E-1,-7.782655E-2,5.670321E-1,-1.4047869E-1,-4.8643112E-1,-5.3122453E-2,5.2829534E-1,6.595066E-2,-2.877617E-1,3.4129164E-1,-1.5049936E-1,2.71063E-1,5.4477376E-1,3.7491938E-1,-1.8489675E-1,7.754663E-1,2.3311272E-2,-2.5084093E-1,3.4916297E-1,-5.206379E-1,5.497152E-2,5.329236E-1,-2.7229312E-1,6.728936E-1,8.093268E-2,4.68168E-1,-7.2778426E-2,2.6732656E-1,-3.3928943E-1,4.25829E-1,-1.18059725E-1,1.8716292E-1,-4.339852E-1,-7.709252E-2,4.198333E-1,-1.358174E-1,5.6074315E-1,5.8653945E-1,-3.545757E-1,3.4878556E-2,-2.9169905E-1,1.1833194E-1,8.977148E-1,-2.808858E-1,2.9423666E-1,-3.7592095E-1,1.5022862E-1,5.52181E-1,-7.1403004E-2,-5.331175E-1,1.8049955E-1,-3.15134E-1,5.110336E-1,2.6322326E-1,-4.803363E-1,7.442401E-1,9.870302E-2,-2.1250448E-1,3.4451592E-1,6.41768E-1,-6.884561E-2,-4.3979537E-1,5.4619275E-2,-5.092118E-1,-1.5337956E-1,5.61112E-1,1.1083207E-1,-3.8291466E-1,2.1378244E-1,5.3041255E-1,-1.8774423E-1,4.3106936E-2,-5.95691E-1,-5.014803E-1,3.1591955E-1,5.4102206E-1,-6.372153E-2,6.526972E-1,3.8325945E-1,-9.224654E-2,6.766289E-1,5.344821E-1,-9.882904E-2,4.2913797E-1,-3.2680357E-1,7.1030185E-2,-4.2606714E-1,-1.05793774E-1,4.071709E-1,-5.4679805E-1,4.860725E-2,-3.9773473E-1,-6.5264456E-2,-7.5524576E-2,-5.8309245E-1,7.922093E-1,-2.4022445E-2,1.1665744E-1,-2.2595526E-1,-5.471139E-1,-6.0549404E-2,6.185958E-1,-8.418736E-2,-5.4903144E-1,-1.591762E-1,-2.818629E-1,1.9473933E-1,6.75527E-1,1.9152847E-1,-2.5048628E-1,4.890462E-1,5.3827595E-2,-3.399693E-1,-1.24275126E-1,-5.98994E-1,-1.563913E-1,5.859524E-1,6.4351976E-1,-2.3766212E-1,4.8387277E-1,-4.4768026E-1,7.1482086E-1,1.8863082E-2,5.1895034E-1,-3.796698E-2,2.7287394E-2,7.5541556E-1,1.5820326E-1,7.4271077E-1,4.9929088E-1,-1.9178793E-1,1.9596474E-1,-3.4740245E-1,-4.987798E-1,-1.4899626E-1,2.5045723E-2,-5.557017E-1,8.9154655E-1,1.866588E-1,7.3313236E-1,1.6711423E-1,2.3858316E-1,-2.1260121E-1,-1.4365153E-2,-4.5170987E-1,4.71221E-1,-2.6225168E-1,1.8594839E-1,7.218279E-1,-2.0010172E-1,4.0145636E-1,5.237207E-2,-4.4120586E-1,-7.565792E-2,7.2275275E-1,7.281027E-1,1.6095689E-1,-4.6690255E-1,3.420684E-1,5.935465E-1,8.523223E-2,2.7093846E-1,-6.2964827E-1,8.460592E-1,1.3108699E-1,3.4557146E-1,-2.9176208E-1,-3.9392757E-1,-5.918071E-2,-5.4114294E-1,-1.05944276E-1,-3.621548E-1,1.3122852E-1,-1.5360814E-1,-5.645653E-1],"categories":[],"categories_nodes":[],"categories_segments":[],"categories_sizes":[],"default_left":[1,1,1,1,1,1,1,1,1,1,1,1,1,1,1,1,1,1,1,1,1,1,1,1,1,1,1,1,1,1,1,0,1,1,1,1,1,0,1,1,1,1,1,1,1,0,1,1,0,1,1,0,0,0,0,1,1,0,0,1,0,1,0,0,1,0,0,0,0,1,1,1,1,1,1,1,1,0,0,0,1,0,0,1,1,1,1,1,1,0,1,1,1,0,1,0,1,0,0,1,0,0,0,0,0,1,0,0,0,0,0,1,1,0,0,1,1,1,1,1,0,0,0,0,0,0,0,1,0,0,0,1,1,1,1,0,1,0,0,0,1,0,1,1,1,0,1,0,0,0,0,0,0,0,0,0,0,0,0,0,0,0,0,0,0,0,0,0,0,0,0,0,0,0,0,0,0,0,0,0,0,0,0,0,0],"id":11,"left_children":[1,3,5,7,9,11,13,15,17,19,21,23,25,27,29,31,33,35,37,39,41,43,45,47,49,51,53,55,57,59,61,-1,63,65,67,69,71,-1,73,75,77,79,81,83,85,-1,87,89,-1,91,93,-1,-1,-1,-1,95,97,-1,-1,99,-1,101,-1,-1,103,-1,-1,-1,-1,105,107,109,111,113,115,117,119,-1,-1,-1,121,-1,-1,123,125,127,129,131,133,-1,135,137,139,-1,141,-1,143,-1,-1,145,-1,-1,-1,-1,-1,147,-1,-1,-1,-1,-1,149,151,-1,-1,153,155,157,159,161,-1,-1,-1,-1,-1,-1,-1,163,-1,-1,-1,165,167,169,171,-1,173,-1,-1,-1,175,-1,177,179,181,-1,183,-1,-1,-1,-1,-1,-1,-1,-1,-1,-1,-1,-1,-1,-1,-1,-1,-1,-1,-1,-1,-1,-1,-1,-1,-1,-1,-1,-1,-1,-1,-1,-1,-1,-1,-1,-1,-1,-1],"loss_changes":[1.969926E1,6.9397326E0,7.4775276E0,2.158897E0,1.454937E0,3.1329398E0,1.4993076E0,1.3747877E0,1.8941622E0,1.434193E0,1.0245819E0,3.3460488E0,9.428594E-1,1.010528E0,1.497488E0,1.0681082E0,6.5679336E-1,2.0356798E0,8.448689E-1,7.4338484E-1,9.595667E-1,1.2583208E0,6.766243E-1,2.254772E0,1.3090687E0,3.836801E-1,3.6126533E-1,7.8487813E-1,3.4335536E-1,7.4980927E-1,1.1092951E0,0E0,7.828532E-1,2.613461E-1,3.6886322E-1,9.143534E-1,1.311598E0,0E0,6.9801307E-1,5.8944416E-1,3.9450282E-1,7.2840655E-1,4.337505E-1,1.481235E0,1.0153613E0,0E0,6.3402176E-1,7.13923E-1,0E0,1.3213882E0,1.0852854E0,0E0,0E0,0E0,0E0,2.8473258E-1,3.1714508E-1,0E0,0E0,6.1265373E-1,0E0,5.081567E-2,0E0,0E0,1.4719856E-1,0E0,0E0,0E0,0E0,7.352567E-1,1.1913692E-1,2.601651E-1,1.7219766E0,8.5511684E-2,6.436479E-1,3.1255698E-1,9.206214E-1,0E0,0E0,0E0,1.3134491E-1,0E0,0E0,8.0038786E-2,6.9505525E-1,1.2295694E0,1.1099731E0,1.3357134E0,1.2149479E0,0E0,4.6671247E-1,2.0886588E-1,9.756321E-1,0E0,4.5768046E-1,0E0,1.3422549E-1,0E0,0E0,3.8066673E-1,0E0,0E0,0E0,0E0,0E0,1.8621397E-1,0E0,0E0,0E0,0E0,0E0,1.01545095E-1,7.9672563E-1,0E0,0E0,4.4890457E-1,6.466622E-1,3.7710905E-2,3.982001E-1,2.3383062E-1,0E0,0E0,0E0,0E0,0E0,0E0,0E0,7.4929905E-1,0E0,0E0,0E0,1.1216736E-1,8.0117023E-1,4.6334457E-1,1.272154E0,0E0,3.6771107E-1,0E0,0E0,0E0,8.754291E-1,0E0,4.4828844E-1,7.203305E-2,2.6123357E-1,0E0,1.6622162E-1,0E0,0E0,0E0,0E0,0E0,0E0,0E0,0E0,0E0,0E0,0E0,0E0,0E0,0E0,0E0,0E0,0E0,0E0,0E0,0E0,0E0,0E0,0E0,0E0,0E0,0E0,0E0,0E0,0E0,0E0,0E0,0E0,0E0,0E0,0E0,0E0,0E0,0E0],"parents":[2147483647,0,0,1,1,2,2,3,3,4,4,5,5,6,6,7,7,8,8,9,9,10,10,11,11,12,12,13,13,14,14,15,15,16,16,17,17,18,18,19,19,20,20,21,21,22,22,23,23,24,24,25,25,26,26,27,27,28,28,29,29,30,30,32,32,33,33,34,34,35,35,36,36,38,38,39,39,40,40,41,41,42,42,43,43,44,44,46,46,47,47,49,49,50,50,55,55,56,56,59,59,61,61,64,64,69,69,70,70,71,71,72,72,73,73,74,74,75,75,76,76,80,80,83,83,84,84,85,85,86,86,87,87,88,88,90,90,91,91,92,92,94,94,96,96,99,99,105,105,111,111,112,112,115,115,116,116,117,117,118,118,119,119,127,127,131,131,132,132,133,133,134,134,136,136,140,140,142,142,143,143,144,144,146,146],"right_children":[2,4,6,8,10,12,14,16,18,20,22,24,26,28,30,32,34,36,38,40,42,44,46,48,50,52,54,56,58,60,62,-1,64,66,68,70,72,-1,74,76,78,80,82,84,86,-1,88,90,-1,92,94,-1,-1,-1,-1,96,98,-1,-1,100,-1,102,-1,-1,104,-1,-1,-1,-1,106,108,110,112,114,116,118,120,-1,-1,-1,122,-1,-1,124,126,128,130,132,134,-1,136,138,140,-1,142,-1,144,-1,-1,146,-1,-1,-1,-1,-1,148,-1,-1,-1,-1,-1,150,152,-1,-1,154,156,158,160,162,-1,-1,-1,-1,-1,-1,-1,164,-1,-1,-1,166,168,170,172,-1,174,-1,-1,-1,176,-1,178,180,182,-1,184,-1,-1,-1,-1,-1,-1,-1,-1,-1,-1,-1,-1,-1,-1,-1,-1,-1,-1,-1,-1,-1,-1,-1,-1,-1,-1,-1,-1,-1,-1,-1,-1,-1,-1,-1,-1,-1,-1],"split_conditions":[1.0693522E-2,1.3881561E-1,1.5753463E-1,1.8250532E-2,1.9891694E-2,7.244992E-1,1.2565183E3,2.8451668E1,1.6711246E3,3.735282E-1,6.998525E-1,1.2330669E-1,1.0804974E-2,6.522658E-1,1.9989824E-2,1.06954295E-2,2.3695372E2,1.1388565E2,5.759903E-4,8.151622E-4,4.108067E0,1.2313349E0,4.588373E-2,9.998873E-1,1.0041018E0,3.3510933E0,3.9176065E-1,8.372623E2,2.2197711E2,5.0441034E-2,1.9526932E1,1.5987708E-1,7.902694E-3,3.1774328E0,2.110793E-2,1.15423676E2,8.080137E2,8.0197975E-2,1.4278175E-2,7.828419E-1,8.845919E1,1.3406438E1,9.9239546E-1,3.5858193E-1,8.855754E0,-4.074522E-2,4.876696E1,1.6553503E1,-1.06372714E-1,1.1500449E3,1.6371328E-3,3.5499584E-2,2.6931444E-1,-8.426574E-2,8.8271E-2,3.0858026E0,2.885107E1,1.656543E-1,-2.1420902E-2,9.472359E0,5.414987E-2,2.0757642E-1,1.5331009E-1,7.896698E-2,2.853128E0,2.2327204E-1,2.9610908E-2,-6.375135E-2,1.0335478E-1,1.401898E-1,1.0975266E0,4.091395E0,8.140086E1,1.3706737E0,3.4604428E0,1.6429272E-2,9.721551E-3,-1.148744E-1,6.413474E-2,1.5912378E-1,3.589061E-3,1.2932082E-2,-1.7870732E-1,4.0835828E-1,8.565879E-1,1.2070982E0,1.3322742E-1,4.6895957E-1,6.399286E-1,-2.7673963E-2,9.263685E-4,1.2504646E-1,1.1003245E1,1.287414E-1,-8.2725663E-16,2.1309055E-2,4.5882354E0,-3.1738132E-2,1.2215127E-1,7.158123E-4,1.4582175E-2,-1.1932042E-1,-1.9579338E-2,-2.2657374E-2,-1.7492774E-1,1.2483742E1,-7.206734E-3,3.4997236E-2,-6.778658E-2,-1.6413417E-1,-1.8164823E-2,7.676319E1,3.5746584E0,-1.6470943E-1,-4.775286E-2,2.0504107E0,1.2658913E-2,1.4983176E-1,1.8954612E-2,3.637405E0,1.4671387E-1,1.6148278E-2,-1.019908E-1,-3.7282538E-2,-1.7969821E-1,-4.691739E-2,1.7578572E-1,-5.551115E-16,-7.129864E-2,1.4516184E-1,-1.3430409E-1,2.6989543E3,4.7819507E-1,5.894087E2,5.9477404E-2,8.186218E-3,1.5433258E-1,4.746098E-2,2.2281323E-1,1.4978728E-1,4.892155E-3,5.8789425E-2,1.2906628E1,9.923899E-1,1.0988855E0,7.5137173E-3,1.37151575E-17,2.6746398E-1,5.5997644E-2,2.1993972E-1,5.013427E-2,7.157495E-2,-6.378037E-2,-4.309546E-3,-1.3551296E-1,1.413663E-1,-7.867551E-2,5.578452E-2,2.1654838E-1,-6.0030516E-2,1.20436914E-1,1.571162E-2,-1.3236177E-1,-2.2697376E-2,2.1682583E-1,2.1843082E-1,4.8287068E-2,-1.4007077E-1,1.0262053E-1,1.7806396E-1,2.556967E-2,8.128154E-2,-1.888945E-1,2.5381777E-1,3.9326098E-2,1.0367144E-1,-8.752863E-2,-1.1817828E-1,-1.7754214E-2,-1.6234289E-1,-3.1783283E-2,-1.08646445E-1,3.936856E-2,-4.6082444E-2,-1.693696E-1],"split_indices":[3,25,7,8,23,3,10,15,10,25,0,21,23,24,23,25,15,4,25,14,19,9,9,2,13,9,24,4,19,26,9,0,8,20,6,17,10,0,25,2,17,11,5,2,9,0,15,15,0,10,7,0,0,0,0,18,9,0,0,18,0,8,0,0,18,0,0,0,0,21,5,16,17,5,20,26,23,0,0,0,8,0,0,20,5,5,21,24,25,0,23,25,11,0,14,0,18,0,0,25,0,0,0,0,0,11,0,0,0,0,0,17,19,0,0,20,14,25,26,16,0,0,0,0,0,0,0,14,0,0,0,10,24,4,7,0,6,0,0,0,8,0,12,2,5,0,14,0,0,0,0,0,0,0,0,0,0,0,0,0,0,0,0,0,0,0,0,0,0,0,0,0,0,0,0,0,0,0,0,0,0,0,0,0,0],"split_type":[0,0,0,0,0,0,0,0,0,0,0,0,0,0,0,0,0,0,0,0,0,0,0,0,0,0,0,0,0,0,0,0,0,0,0,0,0,0,0,0,0,0,0,0,0,0,0,0,0,0,0,0,0,0,0,0,0,0,0,0,0,0,0,0,0,0,0,0,0,0,0,0,0,0,0,0,0,0,0,0,0,0,0,0,0,0,0,0,0,0,0,0,0,0,0,0,0,0,0,0,0,0,0,0,0,0,0,0,0,0,0,0,0,0,0,0,0,0,0,0,0,0,0,0,0,0,0,0,0,0,0,0,0,0,0,0,0,0,0,0,0,0,0,0,0,0,0,0,0,0,0,0,0,0,0,0,0,0,0,0,0,0,0,0,0,0,0,0,0,0,0,0,0,0,0,0,0,0,0,0,0,0,0,0,0],"sum_hessian":[3.4682974E2,1.7836174E2,1.6846802E2,7.641997E1,1.0194178E2,7.40745E1,9.439351E1,1.6181133E1,6.0238834E1,2.5024727E1,7.691705E1,6.65954E1,7.4791026E0,1.6079546E1,7.8313965E1,6.1859818E0,9.995151E0,3.487159E1,2.5367245E1,1.684882E1,8.175908E0,2.2669271E1,5.424778E1,1.2258549E1,5.433685E1,5.098415E0,2.3806877E0,1.3519938E1,2.5596066E0,7.369607E1,4.617898E0,1.2941023E0,4.8918796E0,7.1726465E0,2.8225043E0,8.334032E0,2.6537556E1,1.7990258E0,2.3568218E1,1.429162E1,2.5571995E0,3.8864756E0,4.289432E0,6.9309983E0,1.5738273E1,